311 100
</w> -0.18777525 0.66510403 0.2194116 1.443873 0.84881765 -0.14570953 0.34544274 -0.5067255 0.30496156 0.9709379 -0.7086523 1.022994 -0.5296236 -0.6623409 0.66289705 0.6512545 0.4410199 1.0904647 0.59189874 0.16570811 -1.1967463 -0.26277772 -1.0816227 -0.8125735 -0.56720585 -0.65537 0.5766874 -0.7481146 -0.3664704 -0.15449603 0.90685457 -0.6678814 0.007700723 -0.55607444 -0.07794385 -0.5204217 -0.7186766 -0.82648313 -0.30174184 -1.8217374 0.14339434 0.054673184 0.33317786 -0.059756868 -1.6238959 0.6265826 -0.16412964 0.09583771 -0.9139334 -0.84242344 -0.70506424 0.13828057 -0.30672532 -0.39313102 -0.11334946 0.15635002 0.9358975 -0.3918485 -0.6569 -0.6888652 0.29509056 0.3999528 0.6217941 -0.29925826 0.045791063 0.40205672 -0.16771993 -0.3921565 -0.55960053 1.0777831 0.58269 0.70241547 1.5961527 -0.088621594 -1.936069 -0.042845674 -0.4675007 -0.3413004 2.8041995 -0.17201236 0.4715699 0.4128169 1.565135 -0.17253554 0.60386914 -0.32935986 -1.0367564 -0.08836558 -0.49764347 0.65794545 1.3374316 -1.0569448 -0.5273155 0.4093847 -0.3482105 2.149292 0.27587324 0.090367235 0.58371305 -1.1453456
s</w> 0.012674666 -0.6633194 -0.985134 -0.41373956 1.1049274 -2.1650987 0.60417306 0.7419414 1.7141353 -0.4559875 0.37989253 1.1421041 -1.3695583 -0.6505402 -3.0053537 0.4035117 2.1393735 -0.41933188 -0.84263986 2.3432105 -0.72970825 0.1366352 0.7157296 -1.2981473 -1.3747258 1.0429014 -0.46900645 -1.4839964 -1.1602763 0.98385394 -3.7629585 0.046379644 -2.0324104 -0.4649421 -0.6962291 -1.2640232 -1.5814207 -0.03521112 -0.08300173 -0.852147 0.645445 -1.4333146 -0.65880734 -2.3737173 1.3157167 0.9858698 1.6682543 -0.34784457 -1.3558146 -2.3123944 -1.760499 -0.72290266 -0.74031705 2.2254138 -1.6619906 -2.4486716 -0.73599213 2.0568812 -0.10583975 1.9478072 -0.093333855 1.8445125 0.041899618 0.396279 0.34738514 1.2678947 0.38255116 0.15888897 -1.3238592 1.1791142 1.1258255 -2.8285818 1.1029952 0.0022405803 -1.5436426 0.65947247 -0.3546814 1.0898253 1.3680196 -2.0969188 -0.76904786 2.5645394 0.015782671 0.84072685 -0.55248517 0.32536975 -2.1699538 2.2088785 0.3396408 0.5669454 -1.996009 0.6757149 0.7023366 2.2070296 0.38145092 2.2184355 0.6779401 -1.8014873 -1.6423061 2.241157
d</w> -1.0117761 -2.492465 -1.1638579 1.3741512 -2.0544662 -2.5791667 0.5209406 2.4558012 -3.4734583 0.2031001 2.5794415 -1.3550357 1.5836793 3.0486777 -1.934891 -0.37651655 -1.4875561 -0.9398516 0.3951124 2.4605145 -0.5162771 -0.34839892 2.2960417 -0.718575 -1.8922349 -1.7225306 -0.5064647 -1.8382304 -0.534791 -0.720883 1.45817 -0.6878731 -1.0431639 0.19781561 -0.511181 -0.011353497 -2.689265 -0.2354109 -2.4262342 -1.0722257 -1.1683416 -1.9077213 -2.5459669 -2.8138168 0.11157191 1.5305344 -1.5325714 -0.81119585 1.3027066 -3.6093793 0.867339 -3.6394794 0.010604272 1.0264457 -3.591201 1.1433153 -2.414265 0.77404535 -1.0124544 1.6282578 -1.4934676 4.488593 -0.6763573 2.7197015 -0.43777126 0.5074325 -1.1094623 -1.8308518 0.3940935 0.3845922 -1.5940973 1.4451104 0.23736629 -3.335039 -2.9591606 -1.334332 0.26468834 -2.5865285 0.45666334 -1.944751 -1.6584064 2.8105404 -0.61383355 0.94561565 -1.4315636 -0.46964437 -1.3090847 -0.13315752 -1.9378047 0.23325507 -1.6600688 1.3025575 -0.16364296 1.9061825 -0.24564666 -1.0763417 0.7101151 1.2237093 1.8933631 1.5017358
n 1.2893525 2.0787866 -0.69283956 0.49869478 0.5184645 3.1080568 -0.39450365 -2.8228827 1.8648263 -1.2932847 -1.5359948 -2.3973136 1.5137643 -2.0584345 -3.5701766 2.464627 -0.20960699 -1.3375074 0.88494 1.0686294 -1.5327189 2.0155163 2.068624 1.5772526 -0.7598915 -0.99921983 -1.5760915 0.22473696 -0.12386596 -0.96579957 -1.3003765 -0.01883792 -4.342985 -0.42521065 -1.7734561 0.034154233 0.4389111 -2.5502417 -2.270675 -1.1186897 0.11783638 -0.8038286 0.5988171 -0.16365945 0.87227315 -2.3371334 -0.44199556 -0.10089043 0.6144084 -2.0318627 -1.5449996 1.7499869 1.727799 -1.5160235 -0.6354282 2.057768 2.6423736 0.17177062 0.33052453 -1.7856587 1.5026325 0.6935366 1.3977113 0.028250244 -1.3007054 2.0096374 0.5715411 1.3919102 0.65720755 0.040631928 -0.49062222 -0.24225812 -1.243132 1.5600193 -1.7628484 -1.914234 1.0203476 -0.98049444 -2.7081773 1.7772671 1.0263822 -1.1214343 2.376566 0.86525923 2.9231195 0.6877705 -0.751268 -0.45940885 2.3350701 0.57699865 -3.2361805 1.033499 -1.1861453 5.2043414 -0.8126293 -0.38113877 -0.9921743 -1.2667915 -0.7357012 0.7024442
the 1.7602924 -2.5207946 0.17337026 -2.0961998 -0.06600969 -0.35367987 -1.0084624 -1.2084336 -0.40567875 1.674516 -0.95014584 1.127198 -1.0593854 1.3625692 -1.4000684 1.978212 -1.1741648 -0.15744123 -0.76855457 2.3685613 -1.0123707 -0.9178978 -1.975135 -0.52210534 0.6234034 1.6910412 -3.1666524 0.070070416 0.30605382 1.2247255 1.4758785 0.78589875 -1.2251018 -2.3451254 1.0743567 2.5296683 0.5409886 0.60983944 -0.9892031 1.5352376 -1.5323946 -0.50790435 -1.3522806 2.237181 -0.8754477 -0.14250518 0.7463268 -0.32718316 -0.94813216 -0.80352867 -0.8488463 -1.5266114 -1.5045551 -2.3372927 0.21979257 -0.24679436 0.30105114 0.660117 -0.4455345 -0.18815838 -1.4448675 0.41395003 0.53299165 0.78319335 0.4715322 1.9690217 1.4213161 1.7300597 1.0992732 -0.19044915 0.7300894 -0.5033043 0.72115 2.2760446 0.11569494 1.0373636 0.3792041 1.8584982 0.034603573 0.40678027 1.7695605 0.5540771 -0.5556631 0.40024826 1.5352483 0.036068123 -1.5715988 1.2124741 -0.5443959 0.22542289 0.6651955 0.13166034 -0.8467354 -2.3660612 1.218088 -2.4514194 -0.45017973 -0.7248342 -0.07660511 -0.3593748
r</w> 1.0042533 3.908323 -2.344085 1.2991467 -1.4591026 0.410274 3.004933 1.5164312 1.6638083 0.7900333 -2.7006028 0.5381314 0.65401775 2.136018 -3.6915305 -2.5837061 2.231722 -3.066289 -0.4999052 -0.48260713 0.5577929 2.3481262 -0.23013948 2.4525616 0.40372846 -1.2277284 -6.073386 1.4466418 4.24606 -0.18041447 1.883861 4.1368527 -2.133221 0.4184305 -0.9769407 0.022166515 -1.1579117 -0.06632301 1.5729667 0.8128421 1.6782221 -1.609321 0.7247242 -1.0324308 2.1203659 1.524552 0.23801841 0.33660153 1.7044376 0.7339317 -1.6511807 -2.5912507 -3.9458623 -1.4616863 -2.9240549 0.2301367 0.7442546 0.81546116 1.1111463 1.9440653 2.6517246 0.6629699 0.5354234 0.44229668 -0.8070092 3.7488942 3.3715162 -1.2541035 -1.48069 1.0427705 -0.9501701 -1.8825397 0.7665867 -2.3828707 -2.9366944 -0.66308576 0.41622382 3.476857 1.4848939 -2.3574371 -1.9932748 -2.4242585 -0.83033144 0.8626903 -3.1122527 -1.4525925 -1.3042997 -1.4636508 0.37776545 0.40743643 1.2417651 -0.2663357 2.5078287 -5.7002387 -4.806014 1.8881022 0.70691454 1.0414747 -2.210689 2.1092203
th 1.347868 -0.7982452 1.2980138 -0.83957195 -1.405901 -1.2371621 -0.007288788 1.1185936 4.9638367 0.85669607 0.5050267 -2.0095322 0.06878881 1.8660984 3.9839234 1.0545382 1.342563 1.0609025 -0.36483458 -2.2118382 1.9964056 3.141664 -0.8576903 -1.3622677 1.2577895 -0.880885 -0.37349135 -2.1624699 1.5072111 0.80105054 -0.7588999 -2.7254877 1.0560989 1.4380255 -1.3253211 -1.249834 -1.6840966 -2.2280889 -1.6164696 0.6185352 -3.3130822 3.1938074 -0.35297385 2.5539627 0.5574418 1.0938896 1.6799604 2.5621262 -1.1747686 -3.0954823 0.75872606 2.448446 0.13169897 -2.6290798 -2.358674 -2.2219377 1.8238865 -0.59618163 2.5641541 -3.512774 -2.4372125 2.4198978 3.223531 -1.7179456 1.4648483 1.2876065 1.1682721 0.47134608 2.5396352 1.5340861 1.7994103 1.2860222 1.1565812 1.04001 -2.1825972 -0.025168518 -2.315344 2.1260183 0.09315956 2.6961806 -1.3753562 -4.15434 1.9768505 0.6825123 -0.3958637 -0.39573148 -0.21734247 1.5233465 -2.9839594 -1.3775623 -0.3430011 2.1147404 -1.2696236 -2.0228808 -2.1198514 -3.7244148 1.4078856 -1.4424752 5.309785 -4.8235326
re -0.67088884 2.948698 -0.83461165 -2.0633674 0.2602579 1.7134607 1.9345512 1.4573046 0.6517598 -0.97769904 -0.36801657 -0.172551 0.6772796 -1.1687679 1.9483271 -0.29402018 0.218375 0.16803403 -0.42279354 -0.95225096 -1.6777683 -0.086243846 0.5559484 0.040679183 -0.6247196 -0.99040294 -0.15589708 -0.6858342 0.8133795 2.3562322 -0.27026835 -0.5448826 0.023112793 0.23494253 -0.6283629 1.3713619 -1.5454463 0.4939242 -0.36828873 -1.6381385 -0.058749996 -0.4064063 0.79312074 -0.07353196 -1.7373532 -0.37693578 -2.1011598 1.3136356 1.8726456 -4.3386846 -1.9205203 0.4320969 -2.8297083 1.3952253 0.33952412 0.8692177 1.3445227 -2.4930205 2.7599745 1.189597 -0.69576126 -1.286025 -0.9377078 1.7861154 -0.37413302 -0.41430494 -1.4744248 -1.0129802 -0.79159015 -1.0373583 -2.1161609 -0.19355327 -0.7369512 -0.59661573 1.5115675 0.08264116 0.04161726 3.9709818 0.43481466 2.2293477 0.2728697 -3.380917 -1.3281751 1.4398613 -0.13082057 -0.5163065 -0.109800436 -1.3273923 -1.2076902 1.794059 0.26980478 0.23274927 -0.39944375 -0.71852136 0.3847544 -0.3127814 0.03032635 -3.2584348 -1.5257534 -0.38999668
t</w> -1.0525197 2.9159207 -0.07333134 0.90040886 2.95013 -4.880574 1.8179634 1.575604 -0.10357273 -1.4597394 1.3862665 4.2081385 -0.14222273 -1.1584918 0.17271258 -3.119973 0.34832767 -1.3779536 -3.801823 -2.201475 -0.11357662 -0.5827897 0.53456193 1.8731762 -3.0784278 1.0575184 2.3627086 0.45175526 -2.363856 0.6335792 -0.23480864 -1.860387 -2.1409922 -0.48034844 -0.34240988 -1.5123739 -0.34122795 3.3498893 -2.602389 1.3956426 -1.078039 -0.691052 -3.0176852 -1.1009085 -1.3013519 0.22408321 -0.3783753 1.2117242 -1.9401184 -1.720248 -2.050335 -1.6946279 1.0690871 0.9133488 -2.8865907 0.20101722 -2.438115 -2.398806 3.7619991 0.8145313 -1.4063348 0.29124516 2.1942647 1.9956198 1.7333368 0.9951133 0.114409775 3.7333224 -2.2634375 0.2996641 0.89028496 -0.21303077 3.652787 0.74816114 -3.3784885 -0.52324086 1.8336675 1.0978751 1.6440965 -0.21046093 -0.5275372 -1.0601865 -1.3015705 0.81502306 0.19016548 0.21427554 0.111125775 -0.1953916 -0.7919594 -0.4494332 -0.31700653 1.7289214 -0.09780361 -1.5515878 -0.21589048 0.00479997 1.8760842 1.218798 1.1088613 -0.9104172
r 0.54140985 1.8631608 -3.0537145 1.4544225 0.8758222 -0.302336 0.5410908 -0.64152867 0.103649795 2.3269978 -4.086618 1.5502582 0.49657807 0.20317142 -2.6675277 3.0716507 1.5552808 -1.4148605 0.09947731 -0.16518177 0.390603 2.3462493 0.6058059 2.9590855 -1.1915181 -2.86125 -1.5236411 0.29165718 -0.21331304 -2.1531909 1.9118452 1.0040835 -0.7104299 -4.1534257 -1.2036744 1.7675562 -2.2512019 -1.671051 0.32395846 -0.6179445 1.2432163 -1.0034727 -2.6862297 0.3744818 -0.20148158 -1.5002553 0.7727095 -1.3663397 2.1042771 -0.43299037 1.3770596 -2.2520423 -0.9177512 -2.8852832 0.04833664 1.3355782 -2.5920076 1.6043998 -0.9616122 3.6527102 1.798877 0.38244754 -0.31708574 -0.59942466 -3.6733341 1.4944484 2.8555927 -1.3038337 0.5641491 -1.295874 2.6334581 -0.30589977 -0.27724567 0.3727185 -0.44228035 -0.6334351 -2.9393375 2.1584232 -0.77199686 0.46484488 -0.5455587 -1.4891044 0.63760775 -0.3571842 -1.6191975 -1.2192366 2.7908757 1.3553277 1.9328113 0.21046478 1.485207 -0.79549634 -2.4262593 0.9664365 -0.7206805 1.1621224 -0.3194567 -0.867807 -1.0445447 1.1409955
l -0.8468255 -0.99587184 -2.8988798 -2.9998636 0.96263766 -0.61457574 -0.7838835 -0.37630954 -2.4894753 -0.60202044 -1.7703449 -0.16687702 3.1073008 -0.035261165 -0.027555026 0.025439477 -1.4378561 -2.0551424 2.6121645 4.430464 1.9522128 0.26926497 0.29617336 4.7965016 3.505763 -3.129415 1.0778728 -0.6982623 -1.3392146 -2.831597 0.3048351 0.36146852 -0.099510975 0.5256405 -1.74465 -6.471637 -1.091731 -0.10005244 -0.6885948 -3.2043233 1.1131366 2.7283344 0.9260889 1.1710962 0.072056755 -0.6521119 0.79534584 1.2869148 1.0850946 -1.7312582 2.1362364 -0.9917315 -2.5729601 -1.1702291 -1.7852228 -0.75508183 1.9768804 2.2527182 2.3488455 -0.8320821 -2.3163116 -0.03752134 -0.26444158 1.1978424 1.9467463 1.506629 -0.12599264 -5.124468 0.0056904363 -0.61318886 3.776136 2.5390303 0.9923803 3.120309 -1.7721543 1.8542441 -3.700217 -0.18622202 -0.48963562 3.6062887 -2.2187543 -0.3849958 1.5084364 -2.3979623 0.69222957 -1.3542247 -1.4129832 1.3073828 -1.7212161 -1.4154898 0.91498435 0.60115695 -1.671052 1.8516462 -4.3040795 -1.3257473 0.8502867 -0.61804444 -3.093689 -3.489712
g</w> -1.7659022 -1.1447986 5.1609445 2.1989276 -2.1780753 -0.5803612 1.2692565 0.42277902 1.6441308 -1.3595192 -1.0318929 1.0127357 -5.782306 2.619738 -3.9182703 -2.8279457 -1.3840086 -0.061633244 0.71951026 -0.6124369 1.7272934 0.44398355 3.7228281 0.2685453 -3.4628067 -0.6947802 -0.32950008 2.4569228 -0.57881457 -0.3723244 -1.4023522 -4.509832 0.47921735 1.054195 2.1657567 0.07476654 -2.1588376 -0.020156283 1.0301836 -3.0438786 -2.233099 -2.1505375 -1.0553368 -0.3663276 1.9272728 -1.8866681 4.0883 -1.0428637 -3.9052916 2.216807 0.7862611 -2.9425178 0.29068905 0.8107641 0.21050717 0.8392811 -1.6478069 0.6977602 10.761884 1.8516954 -0.65583354 -0.9271401 -1.4014924 -4.1186166 3.1600266 -0.20479186 -2.178863 -0.69846666 0.96125144 -0.9362124 -0.025874415 -3.2807758 2.3534398 -0.8473856 -4.7829995 -0.20774493 -1.760418 0.1550603 3.2266963 -4.454632 1.7617784 1.5167265 -0.792393 -1.5182011 -1.4018041 2.9625576 0.011269444 -1.1186073 0.35541677 -2.3033803 -0.16964875 -1.6746527 0.7769076 3.8164902 -0.8670635 -2.0456595 0.37707415 -5.5094266 1.7501146 -1.7026787
st -1.4973141 1.6229947 -1.5071473 1.3576009 0.24270883 3.0058513 -0.1283291 -1.7074773 0.27425858 0.68455774 0.15151607 0.19638737 0.33915955 -0.7979464 -2.2874253 0.71454793 -0.6068907 -0.20199102 2.04561 2.0090406 2.3040068 4.060767 1.7894082 -1.7496117 0.2512989 2.3115509 -1.3218473 0.848695 -0.33861575 1.2222843 0.021330727 -2.545899 2.157999 1.0053853 2.483895 0.38330817 -0.006066448 -0.65236235 -1.9090774 0.16275406 -0.5998366 -0.96574277 0.16926129 3.6077588 0.8561754 3.185443 -1.3529403 0.07112699 -0.051086124 -2.2187288 -3.030678 -2.542928 3.4408188 1.1405275 -0.18003672 1.5462087 1.6760368 0.093415536 -1.5975786 0.00033352853 -1.7343832 2.23013 3.0840871 -2.9049082 3.9607306 -3.0242658 -2.5012426 -1.9386239 -2.811951 0.21570994 2.5244856 3.1395626 0.6448269 -0.39799774 0.15847163 0.2667012 -1.2372826 1.9696151 1.1559709 2.550734 -1.2663972 2.7738445 0.9520868 0.6386753 -2.0332808 2.4368312 1.7217718 -0.8372108 -1.5587441 -0.17439432 -0.8882647 0.7510123 -0.5288708 -1.6465632 2.3349085 -0.27640674 -1.6967093 -1.450504 -3.493408 0.5256183
is 0.6686649 -0.19213133 1.211391 -1.8983707 1.1404711 1.6394632 1.2147626 -0.9487108 -0.27433002 -1.3348583 -0.21206073 1.323558 -0.74395114 0.5396713 -0.06413264 0.53612506 -2.0412776 2.9414933 0.20516989 1.7513008 -0.94458145 2.0445845 -2.050105 1.2704568 -2.7455356 -2.1240752 1.6004844 -0.6801906 1.7427545 1.875095 2.3427715 0.42259294 0.7941571 0.7115593 0.87729573 -1.6743139 1.2197349 2.3627179 -0.99168175 2.11688 0.5910089 -0.0433354 -0.8868007 1.507838 -0.64207155 2.9180412 1.5687904 -1.0233449 2.4939797 1.419393 2.0095985 -0.10911063 -1.2309554 0.72863036 2.4700837 0.66307133 1.5440404 3.696732 -0.8993317 0.43322262 0.32481644 -2.049487 0.2595837 2.1477134 0.1010576 1.6980901 -0.30373442 -0.80919576 -0.8733375 0.58509475 0.25835848 -1.1709404 1.5534108 -1.809082 -0.16000587 -1.9966729 -0.27246824 -1.5301338 0.60985065 0.21943635 1.3793436 0.47415274 -2.8896418 -0.44336182 1.2663065 1.2664 -0.55239064 0.6458721 0.17658946 0.79266596 0.5222872 0.53811795 1.1490921 -0.36859012 1.3672934 0.92329043 -0.2895126 0.14014408 -2.0844414 -3.1889327
an -0.9458547 3.311143 -1.2104902 -0.28093034 0.14973655 1.6559695 -1.1559443 -1.847538 1.7704302 1.6098124 -1.5179268 1.7905324 -0.39687374 -2.9204583 -1.1308854 -1.0978631 -0.23524946 -0.77701825 -1.409313 -1.4668014 -0.29804996 -3.8351505 0.21766625 0.87984556 -0.3129157 -0.63027644 0.21639197 1.3182482 -1.7776988 0.684975 -3.8766038 -0.2164001 -0.6957967 -1.1706673 1.1658491 -1.3416789 1.021044 -3.051111 2.3426948 -1.8037138 1.5013084 0.33556324 2.539145 1.4614545 -0.5560544 -1.7894665 0.7816935 0.5368088 -0.06036367 -0.26536685 -0.5207526 2.3229601 1.8224785 0.2869827 3.3070536 -1.8561856 -1.115952 -0.42134 -2.0929053 -0.23028727 2.0262873 -1.2173237 1.325898 -2.9445138 1.0384917 -2.8214955 2.2403903 1.5165093 1.6184188 -0.8977187 0.17383726 -3.1615627 -0.6139243 3.0900962 2.973451 0.5918805 -0.7153247 0.8061893 -0.23896877 0.17821117 3.2733352 -1.5184087 1.5410281 -2.5903392 1.5174263 0.23406672 1.0237349 3.4912481 1.2827907 0.537785 2.3881905 -2.2324336 0.46027395 -0.9366654 0.5883074 -0.68610656 1.2323991 -0.30648243 -0.8480688 0.62526727
to -1.7631904 0.20250392 -1.2117721 -1.0398241 -0.018177625 -1.636198 -2.3481114 0.70033044 -1.0686545 -0.69531804 0.9731243 -0.42324728 1.838034 -1.4809768 -0.04786522 -0.23239596 1.40657 0.183576 -1.4986488 1.2059916 -2.3285367 1.1322218 1.2888546 -0.7272272 0.14790906 -0.43950975 -2.691278 1.2342283 -1.3201727 -0.4694856 -1.4225606 -0.23650596 -1.4618272 2.5367262 -0.08143316 0.6455797 2.8013299 1.0706465 -0.7486436 -1.0183525 -0.8385597 -1.1703633 -1.7276744 1.8023065 1.5101203 -1.6418437 1.0767184 1.5044713 -1.8440641 -0.8783584 2.4729965 0.667962 0.70341146 1.8579218 1.1013672 -0.32438672 -0.62103033 -1.4250722 0.22032586 2.5890136 0.5697281 2.3935924 -0.33016646 0.43983877 1.5086678 1.3087378 1.427141 -0.43020615 2.3105686 1.8811026 1.8716812 -1.7386897 1.1499076 1.011309 0.43902904 -1.6803006 0.46344417 0.15351841 0.8217123 1.8513662 0.11355542 0.76241755 -1.8397489 -0.56254023 1.4574515 -1.5014528 1.4699413 0.5924098 1.9214375 0.8590041 0.44729427 -0.2306944 1.0547875 -0.5510344 2.2661383 1.4657557 -2.1064897 -1.5325118 0.081252955 -1.1849533
e</w> 2.657609 3.1434586 1.5922 4.7666497 -0.85749865 -1.4424402 1.9403727 2.469313 -0.1687576 2.296679 2.90721 0.74396557 -1.7863965 2.8609252 -2.235094 2.5735302 1.6983768 0.12656209 -0.41159418 2.3020227 -1.8366561 -3.971379 -0.13561276 -3.1482792 -3.0646522 5.7180486 1.9378206 1.7638701 -0.16360594 0.5775582 -0.6882613 1.7403978 0.33176112 -1.0278851 -2.4413526 -1.4910494 -0.88721055 -1.7979243 0.28234208 -0.79816335 1.6102139 0.6790375 -2.066971 -1.3623478 -1.9261369 1.2743812 -1.105701 1.4737718 0.021642305 -1.1546173 -2.9398694 1.5598713 -3.5910878 -0.39249647 4.303896 2.2199357 2.2548816 -1.7143545 -1.1928087 0.41928703 -2.2579691 -0.9944553 3.677384 -0.011724724 2.903049 -0.24875729 -0.69271696 -2.116659 -3.1729813 -1.3281554 -1.0957546 0.47954172 0.44809222 -1.0334128 0.6879238 -2.7413425 -3.7178314 1.5781107 2.0736637 -3.0221946 -0.5502567 2.7122567 -3.2391605 -3.9271286 0.88670725 2.422034 -1.0245036 0.5353425 3.9832537 -4.5298204 -2.7053719 -3.234809 0.6059083 0.4962154 -0.8820201 0.9716647 -1.2363333 1.7379028 3.4079242 -2.8518407
at -0.6755709 0.15472208 1.4302207 0.6084216 -0.74731666 -0.104690425 1.3715936 0.056246556 -0.42205918 -1.3207802 0.7766477 0.74488986 0.43347487 -0.06588482 1.4374706 -1.0620242 -2.429317 1.0996515 -0.61455435 1.5081553 0.8804175 1.1065353 -2.517813 -0.40934816 -2.2344158 1.1083509 0.9851768 -1.0291946 0.9583174 -0.4112679 0.5455777 0.5669245 0.020950109 -0.41182342 -1.9968312 1.3144399 0.82896745 2.3895905 0.6919129 -0.23078467 1.6576658 -1.1408445 -0.6955328 -1.8903605 -1.4035003 5.1517615 1.9489319 -1.3415065 1.5503844 1.2615626 2.7256064 4.1173053 1.9945588 3.6816106 1.1663876 2.407433 1.3074986 -0.15425113 -0.24881563 1.7892629 3.4109857 -2.6480236 1.0377351 5.1898417 -2.025226 0.41764292 -1.6542568 -0.3514312 -0.033478204 -0.92220944 -1.585978 -1.827542 -0.76202947 1.7876351 1.3699194 -2.2800698 -1.7103212 -1.236142 1.5743773 0.06305196 0.23122147 0.3730052 -1.2010429 1.5724049 2.3914466 2.5933843 -1.7010857 -0.55789804 1.521929 3.2660308 1.9027053 -2.656381 0.862052 0.79340315 1.5155362 0.17031895 0.3527154 1.8710244 -3.1636195 -1.2659984
a</w> -0.13715325 -1.2588286 1.4554156 0.8299883 -0.112637825 0.46742722 -0.1728934 -1.6912978 -1.9493483 -0.10863737 -1.1472971 -0.19336067 -1.5594656 -0.8847168 -0.9107286 0.8234989 -0.026066193 0.12800486 1.1952189 1.4432719 -0.75750387 0.2278359 -0.99401265 0.074780144 -1.1551983 -0.9261876 -0.37448457 -1.3156127 -1.0039796 -0.24955834 -0.38798773 0.7507436 -1.7859974 -0.88090545 0.2954297 1.9987766 0.111705914 -0.24017422 -0.50842714 -0.040153332 -0.07493453 -0.14380923 -0.040686883 0.14268638 -0.73529696 -1.5379883 0.40122792 -0.27023777 -1.0270939 -1.3373659 -0.4216792 -1.9217455 1.2173694 -0.6843238 0.26434973 -0.17966355 0.60607857 3.236003 -1.8095875 -0.1804141 -1.3390998 0.06406467 0.016162187 -0.34999314 2.0974083 2.5054264 4.436923 -0.12932837 0.6748789 0.24623466 0.48454136 -1.0920533 0.8747001 2.3494105 -0.041786272 -1.5038291 -1.4622288 1.5438825 0.8052157 -0.19235271 2.0827727 1.3719469 0.7400648 -0.37530473 1.961093 0.18342575 -1.4365703 -0.45210513 -0.9366749 -0.8108652 0.46565795 1.4178673 -2.4303753 -0.930158 1.0108875 -0.58674973 0.5347689 -0.11948935 0.8897162 -1.1202565
t -1.1662482 -1.4253705 -0.33519822 3.233675 2.1065593 -0.51309574 0.93348736 0.54574156 -0.06726679 0.11522921 1.092626 -0.45722944 -3.2866516 1.9818916 1.8245727 2.025366 1.7549133 -2.0854115 -0.45447654 -1.8732481 0.2463594 1.0923563 2.9349988 3.1360278 0.07809137 0.5744989 0.17648515 -1.5272983 -1.2822642 -0.215014 2.3484874 -2.0597906 -0.60132974 -0.32656687 1.7559485 1.8744744 0.36131158 -0.5574705 -2.6847303 -0.59850746 1.1074661 -0.32611278 0.24705122 0.5675585 0.40930212 -0.06702038 -1.7872704 0.535228 -0.61247456 -1.2441796 0.8977656 -1.0640407 2.343689 -0.65178883 0.8963172 -2.3709726 -1.6397582 -0.3203964 -1.1751958 1.0086584 0.8305029 -1.3834813 -2.2561228 -0.5455236 2.1819296 2.0115683 2.4407701 1.9390478 1.0020297 -0.20729244 2.426762 1.1345918 3.6440237 1.1607245 0.045060627 0.9483936 2.677766 -1.6778284 0.7903653 -0.025965422 -1.5770674 -2.8839338 -2.61 -1.2480626 1.149533 1.821892 0.79823905 0.7490506 -1.5425034 -2.3087254 2.0591748 -1.6133722 -0.10828297 0.7178028 0.5482926 -0.6733409 -1.513268 1.4212554 -1.5535553 0.13720784
b 2.337877 -2.425075 -0.1871917 -0.25020662 -0.43200183 2.2311358 1.9775939 3.3752475 2.090544 -1.5784667 -2.8401139 0.6514072 0.25924036 0.2578045 -3.4687517 -0.06703581 3.3299987 -0.4842993 -1.585321 -5.543876 -0.56629187 -0.4085077 0.2942412 1.7721915 5.5807323 1.0617645 -1.7324803 1.1348504 3.454282 -0.87211525 2.7842345 0.1289345 4.8756294 0.310216 2.5162594 0.40220904 1.7802238 1.6988759 -0.8243076 2.4776564 3.877002 2.497021 2.407648 -0.23719719 0.40324584 1.4144146 2.9839876 -3.2309432 -3.2540321 1.1662219 -2.306586 -1.1432538 -2.0964212 -0.13072175 -0.5853568 -0.9141341 2.9371452 1.4712024 -2.7676177 -0.8791715 0.11607118 -0.28028458 -3.0351121 -1.4195399 3.2774866 4.2024817 -0.780646 0.31992164 1.3982837 2.096407 -1.3133855 -0.080592185 2.3201458 -2.2316017 0.361219 0.20514506 7.0615225 3.3270993 0.40536278 -1.5546385 0.36483973 2.460383 -1.1716287 -2.0583062 3.6662796 -0.28550637 -1.8373897 -2.0575006 2.1867647 0.6508603 1.5064448 1.2575294 0.23906623 -3.2142615 -5.4336348 -0.7531022 0.61937416 -0.05843297 -0.9509849 0.9817946
te -2.5599961 1.0929959 0.038845118 -3.4341025 3.4863214 0.7824162 0.23358439 -0.13008049 2.805985 1.2738023 0.2954304 4.059009 -0.88809395 1.9628142 0.21271196 -0.5612173 3.1164403 -0.028039867 -1.477594 -1.1249923 -1.9820545 -1.9356483 2.5821147 -1.9864359 0.5916766 1.940835 -1.517171 -2.4025881 1.0781602 -3.2140493 1.3958119 1.2114344 -0.018229583 -1.737111 3.766314 -2.870982 1.6178197 0.22266877 3.4777455 1.3705667 2.2479734 -1.5198674 -1.3062657 -1.9720211 -0.30982023 -1.8349324 -1.7985368 0.4518246 0.7054452 0.7827783 -0.40784988 -0.919801 0.55140036 0.8705509 1.4103082 0.078575425 -1.8487962 1.0763127 0.5317279 -0.7035612 0.43098447 -0.5393909 1.221913 -0.50985223 1.1389245 0.28577575 -1.5788603 2.514114 4.415853 -0.026925579 2.5990198 3.6785812 2.1360164 -0.9241001 2.4114537 -0.9983224 -1.08813 0.232442 -1.1726035 -0.8493676 0.8183893 0.66987467 -4.7127433 -3.533345 1.0731205 0.6682054 3.0045187 -2.3575296 1.092588 -3.3802466 2.057367 2.0738685 -1.9519339 1.5059421 -2.1756594 -1.0789958 1.0130076 -2.141125 -1.4981718 1.9519593
in 3.3178456 2.009514 -1.1738458 4.10341 3.3018057 3.7027094 -1.2891487 -3.7840817 -1.3588316 1.5202043 -0.37859675 -0.5630365 0.2515215 1.9568411 1.8319457 -0.122899026 -0.33864745 1.5298843 0.21838684 -0.19159287 -2.5653589 4.2644463 -4.010967 0.80372995 -2.9166415 1.6425542 -4.32157 -2.6708028 -0.21044496 -0.3898517 -2.305965 1.6513549 0.5429519 1.5753222 1.4415609 1.583792 2.8650181 -3.9111488 -0.14627065 -2.457923 2.599633 -2.1501582 1.1160394 -0.59838676 1.5566479 1.33143 -0.5580132 1.6004214 1.3308722 -0.46299472 -1.359116 5.654942 -0.66870314 -0.7790286 -1.2439044 4.460515 1.5664032 -3.298154 -0.7498858 -2.5086834 0.9345546 1.3259646 -1.0956382 3.5998478 -0.60823476 1.7766899 -1.0715529 0.8227759 -1.1324036 -1.9640428 0.85661817 -0.09697545 -1.1157756 -0.9787007 1.6243199 0.4842268 2.7024624 -1.3189588 0.65105194 3.3952572 -1.1366997 -1.8795205 -1.8037722 1.0772582 5.441727 -0.079500034 -2.292855 0.50464803 -0.24561219 -0.54868597 1.945989 3.5257034 2.651509 4.140379 3.550731 2.5781722 2.626039 1.2769716 2.0491555 -0.37873116
of 1.1307312 -1.0076445 -1.2604407 -0.7764251 2.6605606 0.5217001 -1.382796 -0.31961152 2.8488867 -1.5427727 1.2072107 -1.0043465 1.0978303 1.9307015 -3.186769 0.54824567 -2.5631692 0.5337879 1.3006767 3.829381 0.2626116 -0.35540056 0.83484244 0.21653774 -1.8218439 -1.2567776 1.9039689 2.299704 1.1269749 -0.5772004 0.21302903 -0.5867852 2.1123295 -0.67853576 -0.44887292 -0.75799316 -1.1442524 0.7687127 -2.348792 0.7520718 0.37823445 -0.36132434 -0.008219595 -1.3080035 1.985744 -1.487832 2.0825436 0.6012141 -1.2602766 -1.1045974 1.6746485 0.52341574 -0.81158656 0.6557157 2.8701885 -0.07432358 1.1116599 -2.9339378 0.4742516 3.7030048 1.282047 0.31171232 -0.93354774 -0.8787329 3.2372031 1.7436546 -0.07738588 0.11055539 -0.35672244 -3.1945858 -0.12588054 -0.3028689 1.031406 1.9282304 0.41342512 1.8967433 0.7712616 0.63278043 -2.1964204 -1.3221749 1.8941436 -0.26378897 0.7183959 0.61510265 -1.5723693 -0.6245841 0.80234367 1.3228924 1.3817147 2.461387 -0.24891222 -2.3749022 1.0902653 -1.2454975 1.2244947 0.55496716 0.7593419 -1.5972407 -0.18668903 -2.6241405
me 1.3329281 0.8240698 1.9382751 -2.1773965 -1.1636578 2.2701461 -1.0941008 1.2327262 -2.0811124 0.5843525 -0.21249913 1.3278456 -0.49447578 0.72077566 -1.0398859 1.0831105 -0.21014206 0.84186786 2.0292928 -0.9113962 -1.0441588 2.1233652 -0.8312536 -2.2072766 -0.781142 -2.8906736 -2.077078 0.814878 -0.026237022 0.05857423 3.7983987 -1.747911 1.631729 2.0537198 -0.11817809 -0.30412292 -0.19071056 0.770047 1.4502023 0.12634899 -2.2748995 -0.60221297 -2.8699663 0.92436063 0.56366825 -0.28091475 2.2275956 1.3114209 0.45632783 1.7823592 -2.9541438 2.3603604 1.1447611 0.5750506 -0.9690614 -1.1464742 0.82639825 -0.32885954 1.3445181 -0.38211864 1.0575374 -1.5294108 -2.415289 -0.7510468 -2.3241575 -0.6687099 -0.80031973 -1.0243579 1.179561 -5.2846866 -1.1095064 -0.3294922 1.8204854 -0.40689796 -0.11519906 1.5042229 1.011387 -0.7809507 1.3052703 -1.6418273 -0.63518137 -2.9860914 3.1745956 0.5242762 -0.5365523 -0.20947927 1.7875129 1.6709788 1.88392 -2.7006757 -2.4415653 -0.19758664 -2.3166616 2.6597877 -0.25307542 -1.0113728 -2.5698173 -0.35519654 -3.2173517 -0.32515845
p -0.4808071 -0.49369738 0.9703214 2.6803038 2.932683 -2.9308398 1.5331446 -0.5189183 -0.82912195 1.2335917 -3.8724298 1.2559904 3.5191078 -2.083239 0.068919174 4.87701 -0.70345634 -2.15745 1.3951733 -2.0644588 5.681107 1.791339 3.3404515 -2.1817393 -0.3224045 -2.8984025 0.16207774 0.73049986 2.9277065 -3.1863077 -1.7552668 1.6394515 0.6360052 -1.1961393 0.5868949 3.0715103 1.6337525 -0.29093653 -2.4666905 -1.7108036 2.164189 -1.7495649 0.9307129 -2.408072 -0.2598082 -1.9463792 3.4789565 0.9779571 4.4008074 -0.55525637 0.8725182 -0.940913 -0.2620924 0.6046316 3.8410604 -4.3319607 1.5714966 0.40165946 -3.1775346 0.5479425 -1.4333227 0.9076773 0.1459422 -0.13396475 0.7265642 2.2616532 -2.213585 0.4687379 1.244119 -0.44027227 -0.1323326 -4.6656427 -3.291103 -3.305354 0.25067002 -0.96181154 -1.2198508 -2.1866918 0.25838515 -1.972204 -0.4311117 -0.62855554 3.7331157 2.3667443 2.872194 4.012915 -0.9181602 -1.4260654 -0.83630604 -1.1934148 2.2738924 -0.32326162 -5.363156 1.7791128 -0.010890611 -2.5442102 -0.20444986 0.04536156 0.67218447 0.8363427
it -0.34073418 0.10150753 0.5582944 0.76561075 -0.86424273 -1.4426768 -0.75702876 -0.67378944 -1.4832807 -0.069985315 0.43000367 -2.5356612 1.5458124 1.6710081 -0.14756794 -1.3122175 0.11300731 1.2856165 -1.6671067 -0.67405844 -1.2549791 1.3507699 -1.8147688 1.7312684 0.8989658 0.8347397 -1.1470251 0.09912192 0.42764947 -0.28291133 2.1903856 -1.7108642 0.7974436 1.7618438 -1.0031562 2.1071951 1.0375788 1.764641 1.6484907 -1.7964692 -0.19054827 1.1363751 -1.3043011 2.2915182 -0.10986703 0.515318 -1.9481208 1.0679562 0.47763816 -0.53640896 0.7434614 1.2673708 2.3958828 0.4969306 -1.1441828 -1.4713749 -0.5368724 0.57734036 -1.0478339 0.4320668 -1.5055194 -1.645915 2.6974232 1.6468223 0.51297736 1.0194869 -1.1576773 -1.5740839 1.1276977 1.3054332 1.50347 0.15947863 1.0312102 1.7658778 2.0116944 -1.1812499 -0.7390643 0.8213762 -0.6728856 -0.3299583 0.4142611 -2.1746676 2.094054 -0.9280504 -1.0657904 -1.3248857 0.09095228 -1.387017 -1.5927454 0.12613383 1.0267265 0.44820353 1.0147315 -0.23703697 -0.19287732 -0.026819954 0.39766008 -0.7624095 -0.26718888 -2.4180605
ve -0.09557296 0.26862484 0.560054 1.0839902 -0.73083615 1.2926066 0.71403706 3.0574114 -2.2430215 0.6500914 0.5649071 1.5975366 -2.825613 -3.1041658 -0.11972137 -0.2803987 -0.29066125 0.065697595 -1.4489458 -0.85737467 0.69013655 -3.7383711 4.137215 -1.2700794 0.16309394 -0.28693178 0.9900228 -0.71362764 -2.5190392 2.997604 0.8406159 -0.22281896 4.629976 -0.5805267 0.03279478 1.2819273 2.5544593 2.7182214 -1.8424357 -6.515533 2.6387112 -2.3757975 -0.48163107 1.5282629 -0.980884 2.4126751 -1.3423086 -2.2739382 1.5267848 1.4333712 4.1553025 1.5934147 0.89255923 -0.7147966 -1.1650095 -2.5457969 -1.7345529 -1.9507878 -0.95554084 2.4876297 -1.3628086 2.1516428 -1.3594863 1.8977237 1.9984224 -1.0592085 1.450423 0.7029816 2.77406 0.1501551 2.7593806 -0.7845791 1.5605544 -0.14094569 -1.1283633 -3.8728855 -1.9350668 -1.6557927 -1.3134761 1.4708436 -1.7588762 1.7407672 3.6363492 -3.075087 2.2251477 -4.2760744 1.247065 -1.686723 -0.20233406 3.2477016 -1.2932245 4.0458975 -0.2236917 0.5022407 -5.333732 -4.4683633 -3.14637 -0.07555385 -0.31600988 0.53733873
se 1.3289367 0.70828146 -1.556875 -1.7786639 -0.07240828 -0.7198834 1.3999226 1.8470784 -2.1340194 1.4776435 0.6365891 -1.0672702 1.1601216 2.923798 -0.888525 -2.8098984 -2.1864805 -0.66850364 -1.5676471 2.6992598 0.16136768 0.12252529 1.496132 -3.3571854 1.7446232 2.3580163 1.0582604 -1.9899156 1.4270138 3.1124551 0.61426294 -1.2849873 -2.9848228 -0.9189828 -2.213062 -3.3354404 2.9365392 0.7492727 1.8483838 -2.8713226 -0.47343594 2.2033463 0.3729734 -0.19059543 0.35974506 -2.275039 2.9223764 0.63777554 -1.0040822 4.0886 -2.560424 -2.8136353 2.206454 1.750593 0.86352974 -1.5680342 -0.7350912 1.9755495 -1.2998064 2.235683 -0.23570311 -0.7156868 -0.27021196 -3.537931 0.71965593 0.8475224 -3.2466445 0.61259544 -2.4406323 -1.482436 -1.3082635 1.5364869 2.4488914 2.9921205 2.3656669 1.6702698 -0.52765703 -1.2157136 -0.017721454 2.347546 -2.2830164 -2.462062 -0.41579157 2.8996875 -0.69195527 1.0804675 1.5004205 -0.8323168 2.0625708 1.620386 0.4938036 -2.0591218 2.1283846 0.2985123 0.75593096 -0.14844647 1.084761 0.83184534 -0.83202714 0.9604518
le -0.6251638 0.6159668 0.35203037 1.3146966 0.15457356 -2.3862054 -3.7153795 1.5413661 1.2134898 -2.622721 -1.739245 -1.2747612 -1.8066463 2.3733146 -3.9549904 -3.5327892 0.8400306 0.86591107 0.04929939 -2.589601 0.54922956 0.13051766 -1.4050595 -2.5983167 1.8986993 1.2143512 -2.423772 -0.07451537 1.9842687 2.5496373 -3.095591 1.1741025 -2.6194546 0.57810515 0.09965732 -1.381987 -1.513315 0.041485216 -2.077279 -1.3487617 2.7150636 0.50474614 -1.128285 0.78904104 0.5752466 -2.7407978 0.9741818 1.0234681 2.236369 1.9003047 -0.66214013 -3.2625294 0.21395968 -0.85683507 0.52390003 1.3526549 0.24470486 4.4448104 0.7614971 0.2574576 2.215993 -1.7854756 -0.7116761 1.8893088 1.4101064 -0.48190108 1.443075 -0.6991081 1.0394934 -0.88769263 -0.65352494 -0.25065374 -3.1757565 -1.9958279 -0.95999736 -1.37612 3.0625386 4.023031 1.6467237 0.771755 -0.060043216 -1.7337427 1.6252589 0.8744248 -0.30275458 1.5812362 0.5116386 -1.3343046 3.2854111 -0.30509463 0.40541396 0.24365605 -0.4523736 -0.3254632 1.2080969 0.88037276 -0.9173157 -0.21159442 -3.7683833 -0.5114257
y</w> 2.8337953 -0.1290004 -0.0767361 1.4616752 -1.764874 0.10852955 0.7725662 -0.024183888 -2.0383968 -0.9760022 1.5382051 -2.3730729 0.6700901 -0.44311497 -2.7605295 2.1392355 0.016981568 -0.84872633 -1.34586 -2.1699636 -1.5258018 -5.907552 -1.8837998 -2.4025216 -3.3363519 0.35810885 0.16272724 2.961237 1.3270856 1.0783132 1.4126787 0.60412073 1.7381616 -2.031341 -0.8696974 -4.0482626 -0.7629834 -0.5777255 4.072336 -0.65195453 -2.2176204 -1.5124807 0.016587839 -2.4071634 -5.338408 3.9176795 -2.2373278 -3.4775898 -2.1377895 -1.7451663 -1.910878 3.2104216 -1.8539697 2.461914 -1.6174278 -0.10120711 1.4039075 0.55739146 1.7852868 3.2692602 1.2585084 2.2686098 0.9925908 -0.6074852 -1.0462513 1.685657 -0.99809647 1.2947294 -3.2795193 2.0276933 1.8847189 -0.06528544 -1.5317234 -0.40147126 0.8948556 1.4161519 -0.5187214 -0.03145471 4.0235505 -3.534551 5.3722787 -0.94085526 -1.0816954 -3.2064812 -0.73947585 1.1697558 0.6158787 1.6428981 -0.87356323 -1.9624261 -0.42555243 -1.6148971 -2.2650073 0.8668945 2.9055688 1.4229091 2.429299 4.6842237 -1.9610684 -1.2690649
ti -1.0618793 0.7989173 -2.4667046 -1.3775659 3.7676682 0.4460852 0.07108761 -1.901218 2.778781 -0.31822723 1.2319984 0.085595354 -1.7973411 2.0420024 3.837588 1.2190671 -2.0918772 0.76108325 -4.06644 1.6613936 3.3183146 0.1095728 1.7457305 -0.40213674 -5.92138 2.1260538 -1.3304914 2.234727 0.9131036 -0.3462795 -1.0812482 2.5318992 -0.5292568 -4.4079294 1.4329269 5.329495 2.3204 0.91559225 -0.02564076 2.1423686 -4.413062 2.7750418 -2.9091706 -2.2604628 -1.5263972 -2.4321558 -1.6434216 -1.2586108 0.7447768 -3.4688332 -4.1240788 -1.3332831 -2.5790415 -0.65975446 1.681399 -0.1492847 0.20169587 -1.2086161 0.03711703 0.24204798 1.0867608 2.3036175 0.53868973 4.7890096 0.4233965 -1.2585801 -2.8227675 0.81314784 0.50738966 -1.2590063 5.027157 2.8659346 2.1599994 -0.7390752 0.28780678 1.8810108 0.80779654 0.94119465 -0.79856807 3.4712875 -1.4332134 -0.15188992 -3.1306164 0.027388565 1.5347481 -0.7552161 0.79950345 -0.5010002 1.7634186 -1.5724978 3.0947344 0.7172371 1.0014973 0.41978315 -0.32389376 3.4794781 2.1964273 2.3005137 0.8808758 -1.5441148
n</w> -2.8798816 0.075952485 -2.2795506 3.3881927 -0.7238028 -2.4090462 1.0475067 2.567439 -3.1749787 -1.0761514 0.40840036 1.9395506 0.056267302 -0.100765385 -1.1833297 -3.599482 -0.055690728 1.5864779 2.1678154 0.5143533 -2.1442814 2.8143842 0.18051264 0.07102796 2.3074791 -1.10404 -2.4279203 1.2722136 -0.43514484 -2.1837378 -3.4045455 2.3668227 -1.5301766 -0.90560776 -2.3182826 0.11703708 -3.9864318 -1.1588699 1.8426032 1.6574961 1.3831557 -1.4152707 -3.8061683 -0.5811203 1.4092127 -0.24061367 -0.4192174 -0.45812246 -2.941877 -1.6407084 -2.1501951 2.152368 -1.5159779 0.91539663 -2.7991374 0.008780957 0.8243021 -0.108970776 0.3970322 4.1187034 -0.36027008 -0.17759998 2.1912796 -3.958344 -0.26630405 2.1197383 -0.6155084 0.7881585 -0.8380888 1.121221 -0.6778846 3.1270094 2.5898707 -0.66268367 -1.1818167 -3.9333868 -1.3322175 -1.358413 -1.3184954 0.10830728 2.0842953 0.4932819 4.4672017 -1.8950915 1.592034 -0.11643238 -0.84366035 2.0566185 2.2762835 0.3564611 -2.4195328 0.43404856 -0.8490923 2.8531106 0.57854503 1.6665549 -1.0017332 1.874034 -0.35854852 1.0003479
ar -2.159482 0.88517976 -1.4208094 0.8992076 -1.3325171 -1.4968735 -3.7991078 -0.13369107 -0.3620643 0.18579097 -1.8361847 0.14193776 3.7284799 0.063949026 3.1279151 0.5843293 -1.6335242 -1.6386185 0.37002757 1.1709839 -1.993439 -1.9554731 2.2037606 -0.23596483 -0.6751111 -0.17375457 -0.20155717 -3.208021 0.15680557 -1.2889634 1.8636503 2.169551 -0.51597464 -4.102569 -0.18760337 2.2010727 -3.854062 -4.21477 -1.1726156 2.064129 -0.23351091 -5.276276 2.7708104 0.79653 1.2053754 -1.1372825 0.15708426 0.32541692 -0.5710892 -1.2278291 3.7791 -0.24746688 -0.12786181 1.4950538 -0.61430347 -2.1415913 -1.2494648 -0.88881487 2.4034648 -0.6319865 0.52299654 -4.119438 -1.4874145 1.410538 -2.913314 -1.6299875 0.62609285 2.514068 3.5867271 2.1421232 0.09749273 -0.44258496 -0.7531867 -1.0629354 1.8772798 4.6315913 0.62850505 -2.6640596 0.9018344 -0.7306806 -0.09659572 -0.5700381 0.8598845 -0.052659336 -0.22545508 1.0286963 -0.42091355 0.84329623 -0.9993215 0.22002722 0.25872493 0.18086188 4.5194917 -3.6318011 -0.11596277 0.73695767 1.7241976 -1.7375735 -5.6901383 -0.61616975
ri -0.123934396 -0.79202545 -3.4332125 -1.9459819 1.7350569 -1.8727008 -0.19532733 -2.8128548 1.8466413 -0.6867072 -1.8836765 1.4286618 0.6233783 -1.0523407 1.5367334 -2.5490181 0.87213105 1.5289108 -1.5303552 -0.059421245 -0.7987578 -1.9034173 1.6317847 1.4024516 1.7315503 -0.6378669 -0.447602 -0.18793453 0.9497966 0.012479755 1.0225781 -0.07960521 -1.8955255 -0.4249188 -3.0469701 4.450269 -1.5119565 -1.2766185 -2.4011018 -0.5095062 2.410387 -0.46733856 -0.98834 1.7983255 0.52692026 1.198782 -0.6197232 3.397282 0.7565544 -2.4642248 -1.4024237 -0.80259466 -1.8038319 2.3925138 -0.6119445 2.799071 0.49087936 -2.0675921 1.209805 -3.1814356 1.4084884 -1.1798408 -1.0893798 1.2079566 -1.328413 2.1488786 -1.0048606 -1.9908128 -0.56391495 -2.731131 -1.7606035 -1.4844346 -0.59093904 1.7643464 -1.4755102 -0.04583221 1.996915 -0.493612 0.44787657 0.89097226 2.1489286 -3.3429132 -0.9439421 0.9103306 -3.2683544 -2.9823406 -1.7538489 0.20465729 -2.0210457 -0.509613 0.88846886 0.97192043 -0.44504625 0.25645053 0.932316 1.9729196 -0.8409333 4.7429323 1.7579865 2.762937
be 1.613046 -0.76461875 -0.33902764 -1.8361311 -3.246097 0.7213578 0.45749283 3.1998389 2.1038268 -0.5980429 -1.8969796 -0.2126973 -1.079913 1.052363 2.513036 0.5668713 -1.1443608 2.5908055 0.86255443 -1.5764899 1.5189822 -3.1512544 -0.72660846 -0.65630263 -0.4058462 0.66719127 0.09323179 -3.3016443 0.24973066 0.995033 -1.3331814 1.5777296 -0.18648621 -0.320075 -0.36124194 -0.3760991 -0.6945683 1.8243961 -1.9394122 -3.7756014 -1.1199938 3.0218499 -0.007698305 2.5247822 0.290907 -0.118326925 -2.0370255 1.5178641 0.28471038 1.4871802 -1.3023107 0.5406291 0.26636356 -3.0907443 -2.893576 -2.4832191 -0.42053008 1.4613225 1.0597148 -1.4615992 -3.1316183 -0.38583684 0.15132803 -1.4399194 -0.97478247 0.030231595 2.018125 1.2492665 -0.028032098 0.28245303 2.5562842 -2.4115818 0.4288257 -0.67982125 2.966472 -2.2795544 -2.2106118 -5.254343 -1.1863978 -1.1619197 -1.9610488 -0.45435748 4.591901 -0.16965237 -2.227358 -1.2086316 1.9140458 -0.8494942 0.02662654 2.687242 0.9465701 1.5916183 2.692249 1.9648461 -1.8698562 3.9827898 -1.9490494 -0.17775686 0.4471097 1.7892209
li 0.96839577 1.822633 -0.18499908 1.9828886 2.8863485 1.0741947 0.5237337 -2.7272406 -3.783725 -1.1829855 3.7634544 -0.116356745 0.6027928 0.9506572 1.7746252 -0.6019546 2.6843941 0.21231821 -0.4767943 0.6191391 -0.4457902 0.24575545 0.97060806 -2.7631395 2.4404237 -2.5649054 1.8579737 0.6510998 1.5456499 0.02952016 -1.1356039 -2.7349436 0.77413034 0.8243913 1.2022449 -1.1976167 -2.4149976 -0.11425048 0.28639537 1.5250663 -3.23272 -2.1918037 -0.15485197 -2.1638365 -0.60110706 -2.2349024 0.820504 6.491513 -1.0118939 0.024586434 -0.12537438 0.55931145 3.1675327 -1.5588207 -3.16637 1.5361456 -1.708782 1.8873152 0.4617366 -0.4814954 5.7362385 -2.3652256 3.1089087 3.3237607 -0.3527026 -0.14754984 2.9159067 -1.5504998 1.9598887 0.3813529 2.2427673 -0.711176 1.1727245 -1.404419 2.5535934 -0.48711714 1.3144422 3.182179 1.5077779 -0.9176393 1.754781 -0.22080384 0.9675205 3.5193038 -2.524684 -0.83963037 -2.9970267 -0.1494764 1.0048709 4.940909 0.030536827 0.96288586 -1.3336544 -2.6869204 0.6233883 3.2458122 0.35969892 3.4064245 4.261054 1.4565442
ro -1.1768714 -2.2726367 0.19393066 -2.3470747 3.3550105 -0.040498246 1.7921135 -1.1082217 -1.1562502 -4.7077947 -3.0500512 1.1965722 -0.19108212 -1.0583553 3.1616569 -4.2048697 0.6790522 1.6373082 -3.2378771 0.07968748 -1.5845249 -0.99705803 0.22314334 3.418441 4.800844 1.727791 0.17339563 0.5442805 -3.1200964 1.8757824 2.1380892 -0.02995716 -1.1381629 2.0530725 -1.5558286 -1.2375393 -4.728984 0.03393545 1.0593588 -0.30036286 -0.59919965 1.103963 1.3616822 0.5449183 -1.4730164 0.045888383 3.057354 2.297338 -0.48157534 -2.9357827 -3.7672963 -3.2999043 -1.9745791 0.90710896 2.8036141 5.440742 0.25403705 2.2543898 1.2270522 -1.2009751 3.6272693 2.4423125 -0.092794284 3.0823212 1.7548375 3.7178066 1.4653873 -1.8947188 -1.6831763 -4.1052775 -3.3560374 -0.7116738 -0.532929 2.4553254 -0.47819623 3.1377225 -2.448357 -1.8433596 0.36142552 1.8833677 1.6793499 -1.300092 -4.4858804 2.4522407 0.5405191 -0.45823345 4.1213045 0.18564661 1.0767751 2.4739876 -0.18730414 3.9409895 3.4470048 -4.173798 1.4830699 0.7145684 -1.1222842 1.014641 1.0195726 0.19382274
co -3.8312418 -1.2354543 3.9507213 -3.9338908 0.2403722 0.8852234 -3.762949 0.6728228 2.633664 -0.471506 3.1062417 0.32710782 1.8997707 1.5811616 3.919539 -1.9499861 -1.4495399 -1.0244964 -2.3622506 1.3143315 0.8878073 -4.0586295 1.3947906 -0.71271944 -4.226546 1.9371911 -0.33046252 0.38317898 0.9403402 -1.0611418 -1.8871521 -0.4847246 -1.6279963 -1.5900149 5.089051 -0.37538257 -2.9790912 2.7967458 4.395326 -0.95295405 2.3373652 0.61258614 2.0703864 0.49735838 -0.6084139 -0.8256759 -2.584499 0.5617468 -0.5381202 4.6453896 -1.7076045 -3.4864552 4.678672 -2.035234 0.0882165 1.3808874 -3.0799594 -2.6792645 -2.231154 -2.5886753 0.7556738 4.938899 -1.2754445 3.22921 2.3505754 0.2957972 1.330744 -0.31296742 3.3476298 1.5950583 -2.8911154 -0.4945874 -0.83425385 -1.0923297 -2.4448435 2.1852477 0.29113108 0.5541561 0.6609718 1.9452178 2.3911211 1.9197693 -0.5381514 0.6118311 -0.5217097 0.22824383 0.396601 -1.0083221 0.96230704 -1.7296416 1.7229112 -2.1129537 1.9557146 1.4253958 -0.5329142 0.31286517 2.5213106 3.6481824 1.1592652 -4.380126
mo 0.6909532 0.17193086 0.4366736 -0.99206454 4.193855 1.4608581 1.7469577 -2.3703427 2.2553556 0.3248336 0.38078344 -1.127227 -1.9066033 3.028803 0.49366087 -0.67760307 -1.2692283 5.122589 -2.5527568 -1.0719684 1.2940682 -1.4636278 -2.91743 1.2633162 -4.812273 -1.2082871 2.4179232 1.3158995 5.7771444 1.2111439 4.041106 2.6160116 0.4091105 1.4062749 -2.5346186 1.0485175 0.5457883 1.1485158 -0.11208181 -0.038333446 2.4066129 -0.43994334 1.155577 1.5971087 2.3481398 1.0703118 3.2028348 -0.77815115 2.1378984 1.5257556 3.3931847 -0.82665986 0.857256 -2.997764 -2.4874208 -6.0126243 -0.49650675 3.3754861 -0.72423065 -0.37103122 0.5476572 -0.45663556 1.1207325 -0.8662342 -0.9939016 1.0972608 1.7781652 1.3881873 2.8072176 1.8663973 -1.9554007 1.9191895 1.114886 0.7060065 0.92032737 3.2377589 -1.1598221 -0.3937087 -0.6947675 0.22722323 -0.31896356 2.9782002 -2.640518 -0.4581877 2.8464262 0.32814223 -2.6131835 -1.5831898 -0.7166165 0.046161305 -3.6711476 -0.5397022 0.49736726 -1.7658349 2.2947721 3.6758037 -2.0207558 -1.8506147 3.968114 0.20850363
ch 0.9276772 0.70985943 2.3470545 -0.4878217 -4.6068873 -1.8006954 -2.754783 -0.7488476 2.6119537 -3.1082788 1.3443338 2.0517192 -4.109903 0.6160825 -1.966283 2.510377 2.6098285 -1.445153 0.0018456047 -1.8571489 0.29994458 0.84554464 -0.90313387 -0.9656879 0.5040309 -0.24497296 -2.0326037 1.9538323 0.38933277 0.7362953 -3.7247138 -0.44192627 0.4630554 -4.620501 -1.7841642 2.0623686 -3.5226247 3.8461542 -0.95762146 -3.35216 -4.2458115 4.425854 2.5717416 -0.3955091 5.247001 3.0056689 -2.7947729 5.2226815 -2.371969 0.68723506 -2.2425706 -1.3649126 -2.847822 3.8551352 2.526244 4.4819 2.1473224 -0.37086642 -1.840287 0.33864418 -1.3490787 0.90020347 3.1789317 -0.7811132 -3.5900452 -0.23238896 1.624163 -2.2085416 4.399167 4.0176325 2.1137304 2.459551 1.6573735 3.2040877 -0.47145596 -1.1078653 -1.1527917 -1.7172065 -0.2589138 1.2696698 -4.9468474 1.2134824 -4.4848075 -0.1630454 -0.48267978 3.001101 3.4816203 -0.27553234 -0.2676257 3.0735905 -3.4783177 0.88640773 -0.68602645 -0.20746976 4.1185026 1.6916342 2.4295728 -1.7316345 -0.7578606 5.5945
de 0.67301744 -1.5783828 1.7259184 -0.05804765 0.07876163 0.5066017 -0.24089488 1.8794014 1.6528461 1.6665791 -0.61290777 0.19634907 2.1079705 1.2673846 -1.4006718 -1.0648053 -0.052365225 -0.25377858 -0.022888431 -0.053002167 -0.5048323 -0.04402683 3.610074 0.2059496 -1.2326216 1.990122 2.798527 1.9893919 -0.5799855 -2.33601 -2.93724 0.5438029 2.3347888 -0.21382365 1.2116368 2.5182192 -1.7820096 -0.95129794 2.493065 -1.859973 -0.4898776 3.3451846 -1.9038512 -0.16724661 -0.1328866 -1.5228586 -1.4342374 -3.1852267 1.0012305 -2.0221353 2.6564457 -0.465112 0.9583737 -0.28856823 1.2961444 1.4776427 0.9143009 2.9624236 2.7846148 -3.122367 -1.4025135 2.2765183 -1.9120387 -3.076123 0.4838414 0.98408157 -0.51739323 0.6078391 -2.7519038 1.7403091 -1.1310195 2.775886 -1.4684503 -1.8576895 1.4850249 -1.060117 0.052237112 -0.33576334 -2.5834923 -1.2554651 2.9101043 0.063407965 -1.6817094 1.4284576 1.3314401 -2.1360512 1.2182052 1.746147 -0.63466007 3.0050485 -0.25814626 -1.2202797 -0.9769548 -0.081731796 0.7112414 -1.5958772 -2.0422313 0.556682 -2.5056486 0.72006303
ma 1.7708073 -1.9106431 -0.9599797 0.26802328 2.166864 0.9058351 0.17908002 -3.407718 -2.0480664 0.22335291 4.705183 -0.40822604 0.28477627 -2.665563 2.541574 0.48229232 2.4832046 2.6773014 0.19535305 1.5746288 1.601706 -0.10386091 2.243025 0.53933465 0.7484926 -2.365273 2.551015 1.7314256 0.6093193 -0.024835378 1.7062504 0.8596049 -0.6497388 0.5814329 0.52382255 0.35539705 -0.62100947 -0.89465445 1.7242651 1.9046221 -1.5484571 -2.4560804 -0.39489144 -2.4078114 0.3301078 0.4690873 2.4379022 1.6795175 -1.9196837 3.9109516 -0.023746755 -2.324092 0.74719566 -0.34886608 -1.5420283 -3.158988 -3.54024 1.2386973 1.2154852 0.09850752 -0.3729418 -0.8209669 2.1481516 1.2418293 0.1671145 -1.4764701 4.7845836 -2.8739555 1.899525 0.28086373 -1.6159136 -2.146196 -1.1615381 -1.4295248 0.97923225 -0.69272375 0.71719694 1.7629817 -1.9538541 2.2402363 0.41261667 0.0870414 0.14355361 0.34491774 -2.407359 3.0695486 0.13640763 -1.0012631 1.8117828 1.4265614 -0.82998544 -2.1812613 -0.7852942 -0.6447105 -1.1552972 0.27450588 -1.4648203 -1.0580744 1.1062117 4.1906457
in</w> -0.46949792 0.20886669 -0.8668077 -0.02401616 1.6045352 0.975671 -0.18440165 -1.0680342 2.8331025 -0.6846411 -1.0935273 0.4600784 1.1117254 -0.049429208 -2.713604 0.43283308 -0.5149515 0.57578707 0.93329257 0.07295298 -0.5655007 -0.6144079 0.22581576 -0.494503 0.26308775 0.10818347 0.7571942 0.21995886 0.17992236 -0.6935289 -0.8725948 1.1591778 -0.22622691 0.08234125 -0.052465267 -0.45496234 0.60628366 -0.20405702 -2.4646533 0.94374305 1.2324512 0.67170054 -0.7682765 -0.7486292 0.5158036 0.5993988 0.88909346 -0.46540627 -1.2379218 -2.529451 1.2529151 1.0292894 -1.3568895 -0.30134222 1.05263 -0.011190842 0.70578736 -0.6933555 -0.10836501 2.8141873 1.2334102 1.1038121 0.026911687 -1.2060926 0.6266824 -0.29362088 -0.035557326 0.19672038 -0.6220666 -1.4750562 0.8783296 0.12944616 0.8390053 -0.28319198 -1.3511672 1.6526526 0.3009482 -0.5566629 1.1035007 -0.71479577 1.0196011 0.98366845 0.1622067 -1.0364447 -0.86521304 0.27732283 1.2196982 0.99810416 0.39352003 0.8720816 -0.014484248 -1.3508352 -0.15252502 -0.59497255 2.270033 1.447485 -0.31913278 0.8892038 -1.0346504 -1.5568656
i</w> -0.72210294 0.56128895 1.1428766 0.1597014 -1.1929482 -0.54430807 -2.3290741 0.4924278 -0.11200485 1.8001716 0.18296309 0.9698258 2.7042212 0.035473228 -1.5574416 -3.3913543 3.053349 1.5020274 0.006250427 -1.9173687 -1.9235336 -0.30886155 -3.0180635 1.1328802 -0.90927035 -5.8537316 -1.127702 -0.8736126 1.3466465 -1.0494926 2.207498 -1.5202653 0.0015602126 3.400714 -0.96554327 -0.24063274 1.6390396 1.9147904 -1.3290539 -2.1881905 -0.7886616 1.1914581 -2.4832149 2.2735715 -0.60169625 1.6429615 -1.6967939 -1.2324717 -0.34297028 0.40749785 -2.1961167 1.9996283 3.3593738 2.820167 -3.4228508 -2.7698236 2.3745072 3.4485793 -0.858265 0.079640254 -3.3106852 -0.7356659 0.8339108 2.8089375 -1.463385 0.94898546 0.8781484 -4.124178 0.2416993 0.9224373 0.19660932 -5.6719036 0.7260336 2.2998345 2.5976107 -2.3978922 -2.548236 -1.66058 1.9706025 0.064957455 0.44561568 1.6001873 1.1584847 -2.465033 -0.6433893 -2.5264523 0.1574064 1.1013175 -0.21355252 1.1389909 3.3853335 -1.0515357 0.9136379 0.6858538 -0.7229294 0.5620016 1.7934484 -1.1312516 2.4267745 -2.298605
s -1.051578 -2.8763242 2.2114365 2.1515198 2.1061654 -1.0754273 -1.4780047 0.77916414 -0.2759191 0.17280199 -0.48292008 -1.7486291 2.9497662 -0.9179229 -1.8967571 2.1981568 2.690029 -0.88788134 -0.63632554 -0.037515398 0.36877194 -1.9132848 3.91868 2.636926 2.5803196 -2.7831962 0.5454244 1.6431565 1.759744 1.3617318 -2.3681061 0.045339227 2.0967233 -4.323129 1.4963553 0.13418159 0.5880466 0.7307133 0.30583882 -0.29907143 -1.7325666 -0.07659812 2.447241 0.57308394 -0.31635478 -0.2293784 -0.034521867 0.60884845 0.7853105 -3.018506 -0.9017294 0.29968673 1.2091146 -3.0267618 -1.347078 -1.2066585 4.470526 2.5602744 0.19721638 -0.2939002 2.0643613 2.0587456 -2.4182496 1.455744 -0.4116467 0.79880965 -0.8251869 1.0389904 1.054781 -0.22454648 -0.6095872 -0.08756497 0.04902402 1.5344356 -1.2052135 0.92276347 -1.3607321 0.77666634 -0.7583771 -0.12489306 0.17346592 -0.42613152 -2.8489428 -1.5053778 -2.2403228 -0.8770377 -2.3384273 -2.0268903 0.6484145 0.8468873 0.8293782 0.8775574 -1.257377 1.0549346 -2.2141163 0.860881 2.3397691 0.78723294 -1.773561 -0.51867634
ha -2.2645187 1.547534 -0.6959572 -6.9668074 2.0867784 -1.1501315 2.927326 3.196773 -4.730506 -1.0144305 -2.0301757 1.6419876 2.7859793 1.6332792 1.6587685 -2.300558 0.14056084 -1.7190589 -0.7730925 -0.9453205 0.38467196 -1.6850907 0.0069875205 2.0786448 -0.98403513 -0.8759158 0.96698195 -1.227981 -1.20601 -1.6034721 -0.9707648 -0.8255032 -1.6685747 0.5167245 3.128158 -0.90666467 -2.146731 -1.2012024 0.6020343 -0.84998715 0.64769447 2.4195032 -0.21524857 0.9665002 0.60367596 -0.11863078 -2.3701718 4.0510097 -1.5527 3.3113554 1.4739888 2.1418626 0.5176511 -0.41488275 -2.3639743 -0.9194603 1.8435884 0.039053462 -1.1868411 -1.1431386 -0.1636019 -0.20377888 0.13930304 -1.0885346 -3.5141919 -2.1179228 0.38468587 2.7562587 -2.3738797 0.48862132 -1.3593972 -0.5560175 -3.2449362 0.43833593 2.872081 -0.111742005 0.032618586 0.54892385 0.64407825 1.3816961 0.22565931 1.1015099 1.2671994 -1.3984399 -3.8342648 -3.4757886 0.07806499 -0.56664515 0.9445502 0.94787484 -0.3635747 -0.28054628 3.5251677 -0.23009665 4.0536337 -1.198622 -0.7326308 1.2489219 3.0569499 -1.0800976
so -1.980737 -0.09977397 -3.0859244 -0.20710962 0.16722634 -1.7184718 0.82847035 -0.2627336 0.20175427 -0.4519997 -0.23257841 -3.6575148 -2.7324312 -1.0969288 0.6859266 -0.23708867 -1.0983071 1.8077134 -1.2029914 0.24364187 2.2039204 -0.684152 0.5721533 -0.826682 -1.8082285 -0.32295677 0.9645295 -1.499121 -0.53445536 -1.7492636 -1.6073823 0.35409623 -0.78432125 -0.57938296 1.6008723 3.8516686 -0.5081723 0.50642353 1.8573912 1.4681336 1.6073288 0.48910594 -1.3893452 1.7256913 -1.3159297 0.86051714 -1.454565 -1.115619 0.68313384 3.501398 0.5139123 0.13678965 -0.44626275 -0.48168802 0.64548373 0.47424704 1.4105912 0.38272643 -1.2818937 -3.6755924 1.1348853 3.4628203 1.997381 1.7189981 1.9929776 -2.7669492 2.4690328 -1.634854 -0.72253036 3.5295365 -0.9097396 -1.2641169 1.3496481 1.8303692 1.3879955 2.6816654 0.8626559 0.6823959 -0.7934862 1.2531699 1.1340588 0.057701807 -2.2329333 1.1009661 1.4256173 -0.10526825 0.8257642 -1.9164313 0.11400534 2.190309 -0.00049321837 -1.7140961 1.4619187 1.5484182 -1.0845158 -0.3424012 1.0039823 -2.9937842 1.9781376 -0.1303664
ly 2.0448968 -0.1281672 1.1566185 0.38845932 -0.7234878 -2.5798712 1.7336375 4.145965 2.049887 -0.7498203 -3.1975715 -0.47718853 -0.76892865 1.2693633 -3.487193 1.0619413 0.45109245 1.0218788 -4.7031703 4.8954844 -2.0673764 -0.3676618 0.64066225 -2.995511 -2.1491995 1.9579059 0.07880044 1.0652258 2.03148 -0.8821297 -4.475787 -0.7931798 -3.502469 0.667317 0.17187367 -1.2395352 -3.8087783 1.203554 -1.9954587 -0.27433705 0.1314222 0.096900836 -4.350344 1.9440067 0.37280577 1.7483695 0.0972055 -0.042810835 2.641415 -0.42017785 -0.06713057 -3.6386075 0.33458635 2.1581976 -0.28347886 -0.27879012 0.13263097 2.826248 -0.9776246 -0.10881155 2.3480732 1.4668236 0.7247397 -0.8631608 2.3962846 -0.9342343 -1.6466395 1.5871309 3.4838846 -0.46354777 -0.6703389 -1.788554 2.3451443 -3.4857714 -1.7188058 -2.570362 1.0119321 4.054653 -0.35275662 -5.1148977 -1.2836026 -1.0675052 0.4588058 -0.726909 -1.8736438 1.7229916 0.11353143 1.9438987 4.286286 1.3287326 1.8847103 3.235897 0.35239655 1.1481612 -0.53996164 2.180892 -0.005300443 3.1188452 0.48493522 -3.6171339
c -1.1375579 -6.2653866 1.726033 2.4476252 0.33745423 3.0343428 -0.6119867 -0.73513293 -0.9826545 -1.5488355 -4.9423075 -0.8136147 -0.8095896 -1.8138039 -0.61239016 0.76423633 -2.2123861 -6.046561 -0.8635727 0.6548331 0.90704477 0.44030583 1.9872104 1.3095201 0.34880677 -0.8932607 0.94921017 -0.7799787 4.605296 -3.2255776 -1.2213664 -3.3080697 -0.5253813 1.980829 2.3605807 3.1113846 0.08436439 3.3271253 1.0418338 0.49136996 1.9367197 -1.0212122 -0.71161777 3.5811064 0.82878196 -2.0786717 0.7698724 -1.7667323 0.0610486 -0.5596361 -1.7587448 0.57604724 -1.4353495 -2.7096915 3.296759 -2.1475565 2.2766974 -0.12097766 -2.6903825 2.0882823 0.19399801 -1.4579259 2.802706 -2.2181058 0.9187724 0.4322916 -0.85459125 3.5752609 -2.9445453 -2.7682245 -1.292854 -0.8881873 -2.8495486 -2.27863 0.80967903 1.0303417 -1.4280275 -2.3277397 -0.41446856 -3.5586755 -0.73052245 -2.3178139 0.20083366 -1.4137756 6.193395 4.4603477 1.0001783 -1.1524094 -1.7870861 -2.0645838 -1.3513691 -2.8312783 -3.736024 3.751434 -1.5261981 0.04542471 -4.0322914 0.8409944 0.76043445 0.46152955
wh -1.2869407 1.3149725 -4.63385 -1.5292772 -2.4529681 2.8700683 0.2309031 4.0416675 -0.4222168 -2.0701437 3.235719 2.321098 -0.22410107 -7.552922 1.491468 -4.307864 1.1007802 -0.0034593532 0.705394 -0.7662255 -2.957409 0.38538703 -0.13820247 -0.2072109 -1.4031353 2.0656939 0.95200014 0.89291847 -0.8417216 0.58546877 -3.5404863 -0.30557683 1.3747319 -3.19376 3.5241776 -2.5937412 0.12453714 0.8785071 0.939446 3.099301 -6.723282 -1.0177883 -0.67518836 3.6836793 5.368837 -0.22135924 -2.8641949 4.605352 -1.4545821 -3.9096904 3.075419 -0.61392474 -5.178297 -4.2724466 -3.141514 -3.505716 3.5602682 -2.662129 -3.7249317 -0.95083755 -4.255194 2.9308972 -4.2873154 -2.4917102 -0.012020322 -0.22005884 0.50286305 -0.3741863 2.7316842 6.856869 -0.7377104 -1.9272286 -2.9251728 -2.1117408 2.385393 -2.5412662 -0.16915782 -4.090514 -0.99761933 3.4510167 -3.742864 -1.6746715 1.6357294 4.9641256 -2.3521762 -1.6050205 1.6637475 1.4496934 -0.5367594 -4.434072 -0.6400153 1.0539869 0.015564317 -3.3693357 3.0258365 -1.6465148 -6.2617474 -7.8653765 1.8712494 0.44994158
er -0.25859 5.963216 6.964759 1.3036252 -2.436939 -1.1332377 -3.447083 -2.6130233 0.13186455 -3.6561255 0.9620428 -1.4922744 1.0177307 7.134126 6.0186543 -2.4619896 2.9929562 0.95154077 3.2183514 1.3104075 -1.0426583 -1.9869167 -4.822012 -2.5992398 3.6365488 -3.5524185 -2.4847145 6.766853 0.59509 -0.7890009 0.80211395 -0.84160775 -0.8851504 -3.454569 -3.5451117 3.7868216 3.595756 -1.5589476 -0.2683977 -3.0607936 2.4106438 -2.2376318 0.026566781 -2.002575 -5.719127 0.21866626 -2.0274565 -2.3012142 -1.8027548 2.6377046 2.159862 5.144335 1.7998705 -3.1018026 -0.05661538 -3.334265 -2.3750873 -0.9822721 1.6171066 -3.4812756 0.90126 -1.0294005 2.7029886 -0.4913661 1.7443271 1.945639 -1.7167668 -0.08085323 -3.7910473 -5.9858947 2.0554402 -1.5792366 -0.14863425 -5.1142325 -3.0436904 2.7618675 -0.06677272 1.4143233 -0.19824408 -3.8096478 -0.7015963 3.573025 -0.6273331 1.7008249 0.9044868 1.8516904 -0.38333043 3.6230159 0.4388273 3.3400934 -2.5541806 0.16718912 -1.0618458 -0.116034314 -1.3481127 3.2017603 3.1722136 -1.1428107 -1.5630254 0.3003992
wa 1.6184266 -0.41194376 0.018579574 -2.65456 -1.7105594 0.5730631 2.98387 -2.4097762 -0.1197157 0.39865306 0.53304124 -0.41210744 1.1691469 1.7784204 2.6882782 -0.46638325 0.2074357 0.22491375 -4.4878554 -0.8080791 0.48776034 1.9781276 -0.5163867 0.887176 -0.41467655 0.39050612 -0.36412588 -1.3428704 0.55875826 -1.7638888 0.6889344 0.55269897 1.7219096 1.6488066 0.8072361 -0.5900988 0.04226273 -2.0177302 0.42113146 1.5334615 1.7560637 -1.3704219 2.6802876 2.7020097 -1.5224038 -0.052550595 -1.699554 0.7811132 -0.09955499 2.4801915 4.6550803 0.428205 1.1266814 0.7422948 -0.009271095 -0.9914313 1.1373035 0.27244315 1.2478856 -1.0370573 0.4645886 -2.296597 -2.0126445 0.3715984 -0.8520941 -2.455028 1.2556148 -1.7466716 0.5876866 -2.1578858 -0.49378857 -0.93316245 0.9218127 -0.57236814 3.575225 -1.8279865 2.6886454 -2.9808319 0.74762464 -0.028156918 -0.46902978 -1.2540802 1.2535313 -1.6083102 -3.931021 1.5392246 -1.7136986 -2.9106054 0.29104808 -0.8468466 -1.047987 0.36859635 0.77321565 0.45009664 1.9722623 -0.5141593 -1.1403428 0.20982248 -0.48900324 -0.22067592
fo 2.138822 -0.60689604 -1.6392058 -0.7447026 1.2303656 0.015684156 -0.072569124 0.9665579 3.5883682 -0.606785 0.94878584 1.6954002 1.0632727 2.826033 -4.2943244 -1.5698856 1.5118077 -0.67080826 -0.97639817 -2.427728 -1.018955 -0.9004735 2.643699 0.5163157 3.1408067 2.150394 -1.0450547 -1.7489398 -1.5409132 -4.0206146 1.1909983 -5.095595 2.861327 -3.5351388 1.2421565 -0.9323264 1.2846333 1.4540797 0.18558054 3.6289446 1.9437315 2.5968833 0.062069185 2.2934785 0.08582108 -0.33794472 2.5815015 -3.3211253 -4.5772195 1.378982 3.4504645 1.0520178 -1.1605974 1.4563754 2.7590742 0.0017170041 0.5746097 -0.0062041283 -2.209735 -3.27603 0.2546904 2.8202636 -1.5412126 1.7208629 0.68469626 0.5225238 -0.7299027 0.7670472 1.635389 2.0382276 -2.2473538 -0.69862664 1.2556447 0.25180468 3.641002 2.547986 3.945377 -1.499398 -3.0708818 2.476963 3.6587203 4.441603 -1.2294242 -1.4118673 2.101774 -1.0583631 0.60689896 -0.013538688 1.4018259 1.0983597 -0.7112704 0.40005493 0.61888593 0.62941027 0.9519072 -1.0035256 -1.125956 0.7189743 1.1482037 -0.06874177
ca 1.1185709 -0.9952256 0.21678387 -2.0201657 0.11571006 -1.3603463 -0.5862847 1.1296763 -1.096226 1.688266 0.42283887 -1.5374918 -0.86288536 -1.3750626 2.571215 2.2448225 0.25707886 -2.4986992 1.4461678 2.7098198 -0.9597451 -0.5033813 0.17055486 -1.8976077 -1.5400603 0.24685158 0.80324006 -0.24444953 -2.4741216 2.624106 0.50149566 1.7891209 1.5533012 1.3013599 0.4467489 -0.6362564 2.1198652 -1.2705073 0.39403218 0.19074526 -0.5669421 2.3332736 -0.31840158 1.322944 0.48129436 -0.9740961 2.0164318 -0.77497226 1.7274756 5.559814 3.1653419 -2.9334128 1.1894248 -1.4751929 -0.56254613 -0.25021693 -0.099806815 -4.200564 0.0699964 1.0026754 1.555596 1.1196154 0.12005675 1.0127587 2.9664364 1.0393112 0.30407873 0.27852783 0.73340106 -0.14300069 -3.218091 0.7363746 -0.4060618 2.1125124 0.9110262 2.703532 -0.4715248 -2.9193673 0.6154943 0.7463978 0.0058163856 2.0642238 -3.355456 -2.878104 -0.6412777 -0.7764904 2.3275194 -3.2559607 -0.7542946 2.8086317 0.97298867 -0.7330287 -2.7240732 -0.019176833 -2.4409628 0.53121454 -2.389707 -0.5812839 -1.0649956 0.8300767
ra -0.39753857 -0.47533494 0.1512831 -1.4563881 3.1126294 -1.2860706 -0.9929883 1.3073384 1.8081325 -0.4965901 -0.91881067 0.5008142 0.13923202 0.3923946 1.6057081 -1.0502509 -0.762759 0.44287452 -0.4803293 -0.9726326 0.60529023 0.12229138 1.7261657 3.9922357 -0.21186274 0.09930486 -0.8838485 2.8861866 -0.16680706 2.039474 -4.725429 -0.7390183 -0.87362045 -0.4515399 -2.4070568 0.89407223 -3.1808128 0.741685 1.2100267 0.53260213 -0.7582002 1.7067438 -0.39131194 -0.14487866 -3.0303369 0.5335072 0.2991483 2.0004077 1.5094556 -1.1276112 -1.6948814 -1.1850957 -0.84332114 1.2527293 1.1530349 1.1576374 -0.21139993 -2.9886944 0.1445975 -1.5388223 2.7212467 -2.6199887 -2.3314035 0.59199566 -1.0321361 1.3579612 2.641032 -3.0428762 1.2162383 -1.9886559 -1.9727782 -1.571668 -3.0881946 -0.56628877 0.19732472 0.35301888 -0.38910663 3.6604347 2.355551 3.3433182 4.199209 -0.70347595 -0.7552916 3.9930003 -0.3591164 -1.2954015 -1.2426041 -0.02677927 -0.28207138 -0.88598526 0.563696 1.1367714 0.46981335 -0.8675207 -0.3787286 2.618554 -0.8915699 0.63293815 -0.8534842 4.867155
la 1.0080591 3.7421932 0.81856436 -0.20468506 3.498126 -3.1246254 0.11254394 0.86507934 -1.9158387 -2.4429176 0.93254745 1.5723901 0.30177253 0.040522724 0.92901057 -1.5464321 -0.20996927 5.1584578 -3.3389156 -0.7792391 -2.1418676 -0.5021605 3.6256647 0.69204026 3.3973331 2.038438 -0.12113188 1.1283876 -2.0509312 5.5625896 -1.4109493 -2.385495 -0.530966 -0.8403378 0.254335 1.0675805 -2.1872926 -1.1779007 -0.5356944 1.1072139 0.028180843 5.117481 1.3073055 2.1938243 2.5992203 1.0840309 0.95632213 0.9836317 -0.62965167 -1.1419137 -3.2000263 -3.4905663 0.9788597 0.5826222 0.04448465 2.5081341 -1.2478752 -0.7523851 1.0574254 0.13488977 3.4908764 -2.9362211 -1.6225983 2.2055972 -1.7630132 -0.14463528 2.3938723 -0.8904243 0.245656 -3.083963 -1.2667693 -0.44995865 -3.0838296 0.1503891 -1.0744011 1.8804437 1.2965178 -0.31056294 -1.0305254 -1.8274417 0.9866045 -0.39527288 -1.9321609 0.10300241 3.1506157 0.46960163 -1.7308965 1.7487166 -1.5181468 -0.9104543 -0.8911601 -0.14682637 2.8262246 -2.6570106 -0.84342366 -1.7890228 1.4541644 -0.95873326 0.15640886 3.1088173
fi 4.812992 -2.8280122 3.2211802 -1.3896934 -1.417443 0.48789737 -2.090712 0.33550552 -1.3576589 2.6647444 4.189058 3.5484328 1.7871333 -2.6792314 2.8625154 1.5055642 -1.6376375 0.25065666 -2.2982674 -5.049268 -0.95490795 -0.22045861 -3.224465 2.6579096 4.8435655 2.80055 5.40487 -1.784215 -4.1165295 1.5209566 1.7235671 4.1893077 -1.0728203 -1.753922 2.5777779 -2.6805277 -2.5000834 3.1617374 5.375357 2.3827803 0.8804434 -1.0510056 0.13729803 3.9847517 -3.29637 -0.7011223 6.2715244 0.6008487 2.45069 1.4358941 1.8379915 0.25476143 -0.56853914 3.255676 6.2258086 -3.8190875 1.7809947 1.9973421 2.0986643 -4.665774 -0.19701618 -0.059863772 1.2890793 2.3931675 -2.0514503 -0.4785031 2.0600636 -2.9061832 0.013801889 -2.8626707 2.3181608 0.91815984 -0.33689776 -3.0814543 -5.005776 5.1357775 0.4113045 0.60416996 -2.182729 0.025368806 -0.8562442 0.44846934 -2.2904046 1.92273 -2.305656 -2.5951076 -0.092737705 -2.2496572 1.888416 3.3305476 3.4848886 3.8835597 5.2129507 0.21483447 2.1459086 0.68647677 -1.0104659 2.0676844 4.0063143 -2.748058
on</w> -0.47752213 0.012013249 4.710736 1.622083 -1.1029016 -1.0072664 0.023078384 -2.3261106 2.024871 -1.0414047 -2.0306697 4.383893 0.76761067 1.4263291 -2.4835825 1.0444512 -0.7199957 -0.33681786 3.4967918 0.85730344 -2.5216162 0.31112903 1.1300217 -0.6038853 -0.9071361 0.055663608 0.17686944 -0.577285 -0.48067242 2.0090458 0.13778672 -0.35444853 -2.587851 0.96615756 1.3093401 0.7153181 -0.85562557 3.0065231 0.71773744 -1.0341147 -1.7094092 -1.507523 2.5494287 -1.82821 2.6849844 -0.9257014 -1.5625197 -3.0447555 -0.8798637 -2.497089 -0.6425474 -0.26745188 2.154358 1.0928125 -0.6686033 -1.1422006 -0.45126563 -0.73036903 0.48522496 -0.9966474 1.8509955 1.9059149 -0.9915465 -2.4441278 0.22253679 -0.5944533 -0.71924436 1.1826199 -0.6825292 -4.1046214 -1.4282061 -1.5209773 -1.8828173 -1.4262656 -3.4535472 0.67197335 -0.19590679 1.174092 0.82976985 -2.6690464 1.8981911 -3.6155264 -0.5987692 -1.7204386 1.439709 -0.6983448 0.90208185 -0.14761978 -0.32463977 0.90011835 -3.2846754 -1.3851724 -0.92055863 2.356099 -0.31950852 -0.44799042 -3.3562307 -0.68075055 -2.117143 -1.8258249
i -1.5018371 1.470301 -1.0956047 -2.0056837 3.455976 -3.1144416 -0.59662753 1.5546159 -0.7369803 -2.281297 -0.41749007 -1.657201 2.459808 -0.39532945 -3.847124 -1.2652873 -5.662485 -1.6784011 -0.86528903 6.31979 2.1489768 -5.4506726 -3.832466 -0.62649894 -2.7438347 -1.0605073 -3.1300921 0.7040361 2.897173 2.3528187 3.917157 -4.114099 2.9959083 -1.8532364 -1.5994635 -1.8608724 0.7240056 -3.992839 2.4967878 -1.08265 -2.8575652 2.003639 0.5925972 -3.1470618 -0.49332345 -5.6396837 -1.4475303 1.2609944 -3.4788382 1.1117469 1.847924 1.8248684 -2.1208546 1.8020451 -2.5250359 -2.6726542 1.4405153 0.64257336 -3.6927528 -1.864487 -0.8198898 -2.7804277 1.3318567 -3.0482697 0.93516976 -0.53861713 -0.7388 -3.0272021 -3.413185 -2.6662738 0.9622679 1.3059858 -0.17408425 0.27556106 2.4811466 -1.3656551 1.0603384 2.1434977 -0.12459124 1.1671869 0.030648602 -3.626315 -3.5403783 -2.2522688 -0.78995126 -0.4671981 -0.26871634 -1.5778152 1.4824951 -3.659347 2.9733121 -2.9530602 1.9658177 -1.651634 0.8253036 0.7903814 -0.32700536 2.2704115 5.30213 -1.4788262
w 4.0549703 -3.5688806 2.572908 1.272264 -0.7806111 4.6229997 5.2833767 2.677498 -0.056946326 3.2304547 -2.5132716 -5.7588053 4.211186 -1.0525231 -1.5593503 0.86438245 1.6131986 0.5428386 -5.4010234 2.3822777 0.31594786 -0.47673008 -1.4997302 -0.29986134 -4.8831086 -4.4768443 2.064993 0.3927178 -1.8019658 0.194289 -1.8136942 2.1052432 -0.40531042 3.3571348 -0.5232495 -4.3242874 -0.6936385 -5.2959366 -4.30223 0.8303933 0.52870935 0.00935161 1.3409925 0.5411688 0.44896182 2.3227472 2.5129666 0.42338416 0.14390258 5.310023 1.5082935 -2.6814663 2.9852462 0.7109227 -3.685188 -3.501323 2.1484287 -1.9996394 -3.1888752 -5.889984 -3.0440621 -3.4383059 2.648504 1.1834549 -0.8721976 -1.8826245 -2.367511 -1.6814098 -1.5139159 5.8081336 6.283356 0.026643367 -3.354169 -0.5679304 -1.1531883 2.0164106 0.27092358 -0.047987137 0.14413561 3.1707442 -2.4526188 -0.06731814 0.12166598 -2.3577976 -1.064349 -4.432326 2.7411366 5.2745056 1.7175505 0.6040301 -0.74353486 0.91573316 -1.1259269 -3.7122808 1.7461922 -2.402552 2.8105485 0.28643075 -0.13571173 3.0812297
on -2.1758754 -1.8879342 -2.6834724 1.2920575 -0.2955257 0.57939416 -2.173724 -2.406079 0.6893175 -1.7532083 0.3104148 1.4523277 3.0160344 -1.7615938 2.96263 0.6222138 -0.40354764 0.9920298 5.1217804 0.8987347 -2.0400357 2.9623559 -2.4033904 0.5114183 2.9083683 -1.3588511 0.93632144 -4.7355266 2.9703877 0.58389133 3.0628674 -0.4903517 -1.0740136 -4.187209 1.2953873 2.3089283 -0.026268419 2.4827468 3.8132808 -2.9491205 -0.042406876 -1.6270576 0.56573206 1.0782416 0.39137262 -0.29998252 -1.0452088 -2.0434299 3.2404757 -0.34565738 0.33785173 2.4902864 2.6120243 -2.9892852 -1.8399131 1.3200911 1.0840378 -0.6225654 0.83445114 -2.5356846 -0.0306209 -2.0830767 -2.7606764 -3.4372149 -1.0424384 -1.6859936 -3.6209414 -0.04016337 1.495968 1.3242929 -0.88694406 1.7957762 1.0141886 -0.24807897 -0.37622717 2.9830296 2.205907 0.77122486 -0.013978551 -0.7952104 2.2030127 -3.3675683 -1.2212712 1.4653997 1.7137655 -0.9378097 -0.41106203 -1.0444624 -1.5740302 2.643063 -0.98742133 -0.29837105 1.9807724 -0.56958026 -2.1103013 -1.9164307 -2.4520833 -3.8149457 -2.1682155 -0.45382825
g -1.466364 -4.992175 5.072684 1.0220535 -0.20810714 -1.7987851 0.19161786 -1.3235128 1.4129596 -0.84615713 -2.3057513 -1.4819435 -1.5090164 -0.94160587 0.9834182 0.6036129 0.08802476 -0.8591522 -1.2283474 -0.9784191 2.2826483 0.33402893 -0.13571323 0.5885646 -0.5058359 -2.7264524 1.7344673 1.2402166 0.46402618 -1.6204382 2.399663 -1.2155573 2.0179305 -1.553317 3.1046855 -1.9784675 2.0789437 -2.4741232 -0.8450094 -0.66003364 -0.23509198 0.28140727 0.10978156 1.9737623 1.6638523 -1.6490307 0.022373337 0.38143402 -3.3769608 0.11989946 -1.2009671 -1.3764291 1.711271 -2.6678197 0.06935492 -2.1348042 0.12239969 0.41616255 2.8251793 1.6131991 2.504428 1.254124 -1.3749641 -3.7880259 -0.32105023 0.94854 1.7896942 2.215009 -0.118234016 1.8630961 -3.6248052 0.021393424 0.6866446 -2.2440424 -0.9853049 -2.1717625 -0.97437733 -1.3731656 -0.58517015 0.43285254 -3.5168865 -0.7917042 -1.312906 -1.028627 2.2045937 4.344196 2.87759 -0.83758265 -1.153625 -1.0850258 3.4673083 -0.2558625 -0.8072476 0.95006794 0.8903179 -4.8193836 -2.175999 -0.36617538 -0.60709107 -0.08195485
or -1.201043 -1.5227942 -3.0570695 -3.1579332 1.9070886 -2.8514392 -6.1151094 -5.3733826 2.134289 2.340075 0.08459677 0.58415407 0.96570337 2.516394 6.0669556 -2.504102 -1.8150595 1.9316475 2.9882064 -0.71491975 -1.0545591 2.621192 -1.4950267 4.6108065 2.084117 1.427644 1.5226114 1.406961 -1.9633896 3.2987893 -0.82728124 -1.4873831 0.511375 0.010718641 1.4869541 -0.17220254 -0.6314445 1.134106 0.2057897 -2.6869817 0.79286754 -2.2977479 -3.9290946 -0.27292642 -0.59688973 0.043165546 1.6920604 -0.9203336 2.5336688 -2.1877162 1.5075039 2.3389983 -0.39160788 -0.63363177 -0.8225976 1.8251544 0.14432769 -0.18615004 -0.6558995 1.2634203 -1.2651827 -2.5216472 0.9046529 -1.229496 -1.1193959 -0.110408515 -0.76588726 0.033239134 2.7980287 0.65666044 -0.52817774 -2.0997229 0.93990034 0.20162497 -2.0681586 -4.816787 0.9938867 0.090234816 -3.2154639 -2.3102376 1.8793875 0.4954926 1.4480294 -1.5274134 1.1339487 0.7026306 -0.83126265 -0.6194953 0.82635593 -0.7429777 0.04859005 1.0461055 3.2354934 -0.9862044 -1.3096951 2.923952 -1.9845716 -1.4860787 3.2337608 4.076269
lo -0.43979058 0.42683995 -1.41062 -2.2111552 -0.2714877 -0.94478995 1.0797629 -0.6396687 -0.091485225 2.0996356 -0.8871698 -2.0631957 -0.32043955 3.3549993 2.9013464 -3.9240673 1.6936394 -0.9669209 0.10350778 0.57206243 -2.174283 3.539454 -0.32530138 0.7202618 2.7740545 -1.4952005 -2.2046483 -0.044538934 -2.0459356 2.7327323 1.569717 -1.568849 -3.6951797 1.6817338 -1.3574616 -1.9757154 1.4255699 2.538607 0.03167895 -0.50453836 -1.0908755 3.2472248 1.1675605 -0.5424223 2.3616543 -1.9287919 0.6749883 2.8282268 1.9277792 -1.3059927 -2.6828787 0.67257816 -0.823794 -1.1211727 -0.57402766 1.1911733 2.1811624 0.5054704 0.7652276 -0.38347614 1.5258623 -0.00088521035 -1.321838 -0.43443412 -2.5387578 -2.734336 3.1311011 2.5791898 -1.668146 1.1980462 -2.494222 -0.6407427 -2.7409408 1.380268 0.2554423 0.31674153 0.83799905 0.070041195 -0.53277016 4.2635274 0.84240985 1.4919991 -0.3751956 1.475069 -1.686294 -2.262107 0.35915178 0.013264792 0.14384872 -1.0176328 0.40934968 -2.6684635 -0.018826973 -3.7445295 0.9869806 -0.048842017 4.0036798 1.5179207 -0.075447254 2.633743
al 3.0221794 -1.2256278 2.68234 2.3910244 1.4014115 -0.6243338 -1.4477425 1.2073258 0.76878995 0.9455755 -1.6271188 0.058440518 2.3154023 -1.8923073 -0.03245568 -0.5839595 1.1294205 -1.140294 1.8604289 2.0058367 -2.1427767 0.5754516 0.58054656 -0.19398797 -1.2785857 3.404537 2.7560718 2.1776233 2.0570896 0.88890654 1.4945041 -4.141251 -0.6476444 4.0006742 3.842039 1.6994865 -0.7264989 -2.2657475 1.9339418 0.94565856 -5.995848 2.5641844 -0.5575958 -0.8831874 -0.6896237 0.0452872 4.866948 -2.8877778 1.4565328 -3.0984032 1.6938683 1.4648709 -4.7657065 0.54684275 -1.8654658 1.2895782 -2.1547647 -0.8358598 -1.4165164 -0.84311336 -0.29770085 0.7137059 1.6587919 -0.2195129 -2.2890291 0.37262115 -0.65987146 3.201571 2.288209 -6.646965 1.0962893 -2.394774 1.898078 1.3773006 0.8162087 -2.2185686 -1.4687561 0.009405194 -0.7536935 -2.216082 -1.051564 -0.4600439 1.4573891 0.6377357 0.20038779 0.3737386 -2.2969706 2.4244623 1.5516667 0.64977616 -3.0010471 -0.30606362 2.0084336 -0.008396219 0.69566107 0.7812538 -0.65594226 2.9467556 -4.425244 -1.3028942
l</w> 3.749716 3.1145222 2.4295344 3.7104058 -3.078789 2.3454545 2.3632782 2.4615633 -1.7261168 0.7125154 -2.2991803 0.43674797 -1.7100893 0.67106193 -1.2824242 -4.6101594 -0.253136 0.9488857 5.674571 1.2244427 -1.6249063 -0.21114448 2.06718 -2.0593176 1.9626472 0.02913773 0.78794765 -0.79093814 -4.2270503 2.0078354 -6.116378 -1.0934267 -3.5986764 -3.1226785 0.049542207 -1.4382368 -0.97669697 2.546368 -1.1117413 0.95712274 -0.57260084 -1.4442017 -1.7636914 1.1874372 -2.536563 0.017837508 -0.30078337 -2.0150228 0.268211 -1.7159563 1.6017445 -2.4982204 -0.67679983 0.6122147 -0.58384913 -2.4750798 -0.21105479 1.92015 0.46937412 0.27543613 -1.605025 2.9084756 -0.56924355 -3.7028835 -0.4466074 0.7818463 2.3838103 -0.1529962 4.074402 3.5947468 -1.4069836 4.3694615 0.24158603 -3.855325 -2.7989213 -0.27484792 1.7390375 2.9499824 -0.08873309 -2.0306742 -2.7847614 -2.7577097 3.172359 -1.9738865 -2.1857326 -0.21943584 1.2071888 0.5479542 0.82667845 3.2577546 1.2207757 -1.3589668 -2.7661495 3.4583008 3.4182367 -1.062927 3.1716173 2.687622 5.690616 -2.555811
he 1.2462666 -2.451419 0.7097007 -1.1817384 1.2786071 -0.4127681 -0.91775954 0.32097244 -0.32252905 -1.8086728 -0.7594663 -1.5895824 0.71169734 0.4193536 -2.0372288 0.7836892 0.8088354 0.27723086 0.43783984 -2.0411253 0.31452572 -1.5688281 -0.6299054 -1.2171199 1.4240202 1.3430728 -1.6346645 -0.62645906 -3.5096858 -2.5535762 -1.3024111 -1.9791361 2.4945405 0.04798897 -1.1574237 1.6452035 3.404484 1.5380498 0.93844473 -0.1334932 -1.336135 -1.1581655 -0.09297658 2.2346973 -0.42425898 -1.839386 -1.3921372 0.5922794 -1.9938177 1.323253 -1.3414401 2.22794 -1.3038576 1.3814125 -0.41273025 -0.3830978 0.24123582 1.9089102 -0.7448844 -0.11461518 -1.4255329 -1.6019194 0.5783328 0.7273462 0.78436196 2.1566086 0.70070136 -0.26668975 1.7805487 0.64961946 0.55677736 0.7927982 -1.0984144 0.027304795 0.1874502 -0.91042805 0.2674564 1.0193397 -0.6251339 -1.290391 -1.4869665 1.7682604 -1.0370584 -1.1369406 1.0110213 -1.7852786 1.1943151 0.3664626 -0.92863023 0.7449521 -0.12349609 -1.9799374 1.8992689 -0.7512497 -0.69954216 -1.4903188 -0.78656775 -0.48865634 -0.68505627 1.6816212
m</w> 2.3778696 1.0835427 -0.7187283 -0.9558068 0.5832857 -3.7515173 2.756194 1.0485301 5.832034 -3.518593 -5.4480057 -3.4801571 -1.6677698 -1.7081766 -2.2853951 1.9409869 0.18669084 1.6806206 2.4714935 5.1642165 0.5346312 1.9829206 4.141451 -2.5831046 -1.8086456 4.728182 -3.0312307 4.4630923 0.5441078 0.11192274 -2.8627858 -0.22298437 0.9743973 1.886017 0.73671794 -5.2798495 1.9610698 2.2395852 0.1648573 1.6637727 4.1934376 -0.8321711 -2.8222158 -1.2409711 0.13766633 2.21464 -1.9671059 -0.5451609 0.40874326 0.6702773 -2.6218405 1.6970493 -0.27251947 0.87918955 -4.8889947 2.8845053 -4.0700235 5.4549527 -0.38193324 4.007621 -0.07667505 -7.07958 2.0572004 2.0157256 -0.6481569 -0.5761236 1.29274 3.0089383 -1.1527226 0.51675826 0.5475789 3.657143 -1.9232911 -5.049238 -6.0142636 -1.5752685 3.7071538 -2.7738278 4.2232604 3.013601 -0.8423901 -1.8515046 4.4720407 -0.87650925 0.6673351 -0.55426884 3.3554459 2.2944844 -4.41409 4.7283444 -1.4894437 -1.648819 -6.3180947 -0.6066312 0.97353727 1.2911335 0.35508683 -4.33346 3.9524345 -3.0099277
wi -0.5754092 -0.8292167 -0.012425161 -0.8863311 1.9601765 1.1140816 1.3719419 -1.8599128 -0.8619175 -1.8462512 1.8471855 -0.72237873 -2.9104433 -0.5805657 -1.9234507 -0.45384336 -3.3474996 0.81117266 1.6887063 1.2495068 0.26832208 1.9645084 -3.2191246 1.8226374 -3.6449227 -0.8436155 3.2506156 1.3617755 -2.6567485 -1.4128035 -2.895676 1.8917971 1.2846891 0.33667487 0.64257485 -4.042452 4.2546577 1.3457345 -1.0950102 2.176174 2.1588786 -3.5828717 0.7582929 -1.3836049 0.41313848 2.4663296 1.5224686 2.937759 3.4671369 3.6900702 1.8431726 0.28674257 -0.94296104 1.3249937 1.4511077 0.6793334 0.74435896 0.023092913 -2.0803173 1.9173802 0.5121045 -3.461465 -2.5358362 3.8510647 -1.4674493 -0.43118596 -0.05341969 0.25862092 -1.9599156 -2.673374 -3.5076852 -1.1123672 1.8476102 0.30068216 0.027244527 0.83562493 0.7090417 -3.6957545 2.8534803 2.01632 2.7154255 2.873511 -4.1779027 -0.4670645 -0.46265408 -0.93499994 -0.89512473 0.7214148 0.55165553 4.3515277 2.5910914 1.6614733 2.676339 1.0722579 0.49839368 1.6983067 -1.5333564 0.30734956 -1.712605 -0.7393946
u 2.0915122 4.981556 0.44633716 2.7764606 -3.449615 -3.2057798 -0.13257289 -0.8437885 -0.08379763 -1.9283774 1.4732988 5.002229 4.397358 -4.1498594 -1.0653901 -1.0780988 1.1925298 1.27887 -0.26520628 -1.6945766 1.2789181 -0.6004976 -2.7844424 -0.8129212 0.22405635 -2.1541655 -0.67261523 -3.1600337 -1.0059196 -3.2827914 -1.0846028 -0.53608423 5.039556 4.0272493 0.59411925 2.913339 -1.6671139 2.1294603 -1.76618 4.3379703 2.2539692 -2.5260005 1.3092319 0.62511706 -4.170561 -1.6567686 -2.6882665 2.4453778 4.637659 0.22977048 -1.5189958 -4.573511 -1.6728699 -6.0754833 0.35437286 -1.8861649 -1.081962 -3.2567098 1.5818846 1.0558884 2.5012765 -0.23481536 2.013651 -1.62233 0.21863274 3.299755 -2.9010148 4.1983366 -0.98520356 -2.0601141 0.9977051 -0.40815258 2.429338 4.9396095 -2.7758815 -2.0982196 2.6765165 -1.1005124 -0.9055505 -0.057337016 5.0777087 -1.8524946 1.7132066 -0.44855344 -0.46434915 -2.3680573 -2.181984 0.21566889 -2.4952548 -1.5443028 4.0666556 0.60487455 -2.4716232 1.4055891 2.4660347 0.8403568 -0.37346202 3.2881918 -0.75129056 -2.906706
ce -2.877671 -3.5166283 0.9298114 -0.32625088 1.1036173 -1.2550217 1.1934499 -0.9289312 -1.4308418 -2.238769 -2.1019654 3.2149265 -1.0630087 1.6009914 -1.3196929 0.13142677 2.6552515 -1.2366635 -3.0882845 0.2887387 -1.0879986 -0.38541037 6.0634 0.349656 -4.798542 2.0492592 -1.4209881 0.21843827 0.7638574 0.59855515 2.187691 3.6817214 0.5270779 1.0947006 2.1527324 0.5085646 -0.10817795 1.5127106 -1.6734364 0.44692466 -0.7949922 -2.1833003 -1.337234 1.8045726 1.8380665 0.44781798 -0.72247255 -0.3421792 2.3639941 1.135443 2.3357644 1.320738 -0.14739485 -1.4877275 2.0555866 -0.6125636 -0.14890368 3.2227292 2.98315 2.9016736 -3.8587043 1.3463424 -0.16967219 -2.8411841 0.53072417 -2.1200094 -2.6465943 3.5171924 -2.8031344 -4.1424947 -0.7230599 3.7356632 -1.382439 -2.8429685 -1.5525256 2.177098 -2.6703598 4.2218904 -0.8336385 0.06742085 -2.2436364 -0.70002925 0.094981484 0.9069015 1.357131 4.6080017 1.6590858 0.058655027 1.647607 -1.6568211 3.1628819 -0.40691423 -3.273614 -0.47645426 -1.3675791 2.7610781 1.4542942 0.1827384 0.4806487 0.29913706
di 1.0587932 1.3540168 -2.90509 -4.341691 -0.11690672 -0.27352053 0.62851447 -0.76233137 0.43804872 -2.1582932 -0.38253847 0.55689067 -0.5792524 2.8583186 1.764093 3.8302975 -0.7573167 -0.9961643 -3.9236536 -2.6708539 -0.37551314 -1.4713229 2.1298592 0.50054693 -0.4761898 0.92430574 1.1293877 0.63445735 -0.6101215 5.775386 0.539839 1.7479563 0.3139944 -1.0240351 -2.8088696 4.0476546 3.006409 -1.3453736 1.8214668 -0.7343908 -2.623642 0.34380916 -0.01648529 0.13849331 0.78831387 -1.7061448 2.3925107 0.3594609 0.39724934 -0.4151848 -3.6262062 0.12181183 1.066599 2.7371662 0.5499731 -0.8406182 -1.1028798 -3.4723253 0.75861055 -3.0712972 0.75702405 1.7255402 -3.6770022 -0.22812948 -1.6372567 -1.6842766 -1.1873779 -2.744606 -1.2072409 2.2706752 -1.1835543 -0.71711427 0.30368307 -0.48265702 2.6601055 0.64116806 -0.378835 -0.9546401 2.2121427 -0.57059574 -0.77669716 -1.09626 0.41037214 1.7434057 2.808561 -0.082435556 -2.1288924 0.93959445 1.3159602 0.4218009 1.4944627 1.0851043 -0.8066013 -0.58409375 0.38973832 0.70426476 0.8840188 1.5980383 0.098222025 -1.0266538
es 1.8860707 -0.40906623 2.8836098 5.1641827 -1.0910935 -0.8016464 3.255298 -2.5362234 -3.9712422 1.1509663 0.50673985 -0.44676697 1.9271952 -1.337248 0.25051513 -1.1000974 -1.1093158 -1.476809 1.1780126 -2.0702848 -2.6950421 -1.0988228 -0.058817387 -3.4859672 -4.9920826 3.3678215 1.6431674 1.2127899 1.5578157 -0.032467544 1.3918144 1.8483264 -2.4687977 1.2361822 -0.7652487 -2.0800762 -0.8926972 -0.021608658 -2.8139772 2.2425961 -0.3364826 -1.0385673 -0.49339533 -0.85195357 -1.8161908 -3.002591 -0.76289403 -1.6623405 -1.0278126 0.16483337 -1.5703984 1.0755674 -1.3022561 1.9904 2.369943 1.5467244 1.8050814 -3.5832293 2.0140429 0.6635702 -3.3655837 0.984506 0.64605296 -1.2578915 -1.1714207 2.7413838 1.9173149 0.81948537 -4.2583666 0.25215465 1.8630224 -0.9499829 0.44163737 -0.630011 1.5488858 -0.8518716 0.8621507 0.5202478 0.89996535 -0.44383022 4.4950194 2.2050054 0.891983 -2.0543153 1.3593673 1.6421376 -1.6903678 2.3880439 2.8717084 -3.2754223 -3.172924 -0.65582436 0.5698006 2.4565299 -2.173089 -0.3137937 -0.4642806 -4.530825 -0.5019119 -4.1437945
o 4.2266784 0.51371723 -0.6249031 1.7726381 -3.853146 0.9576759 -1.2916439 -5.120848 -1.189781 1.7275797 2.058159 0.8394249 4.434578 -0.81371915 -1.6772012 -1.763848 -2.655574 1.5456678 1.9674846 -2.270647 -1.7114066 -0.39814177 0.32842708 -1.4113376 -1.2485881 -2.3982413 3.4230595 -1.5714293 -2.7904317 -3.1233857 -1.4467182 -2.1094925 8.324867 0.8917044 0.91687375 3.2554734 0.76806164 2.548736 -4.8921165 0.76212597 4.2136683 -1.5106113 -1.1420588 -2.3658814 -0.4403212 0.4427142 2.8881128 -0.6452154 -2.6754248 -3.822423 -1.0131989 2.032022 0.36905172 -2.3375154 -1.3122832 -0.15779734 0.3558153 -0.53019154 0.08064404 -2.2488708 -0.88983864 -4.0915847 -1.4787538 3.340478 0.11637811 3.2886508 0.90580595 -2.5387197 2.0025587 4.0475903 -0.9152188 -1.277203 -4.2960086 0.21750174 1.4794616 -1.5760587 0.35571814 -0.087867655 -1.0531859 1.5443001 -1.6227893 -1.7106117 -2.9057236 -0.692801 -1.803285 -0.38147172 -1.6880333 -2.2016687 1.4330178 -3.6325774 -3.7154508 -2.9423227 -1.5221901 -0.60980046 -3.29655 3.3180227 0.9943489 -0.6251311 -0.18013373 2.052803
ne -1.0890529 -0.17125177 0.40048292 0.3897078 1.0408378 -1.1078708 0.1290371 3.954675 -0.10841801 1.1503818 2.075034 -0.5739637 1.6140691 -1.9930639 -2.2041402 -2.2917447 -1.1571339 1.3299853 0.370914 -2.055816 -2.7004623 1.0758054 0.78547114 0.7701262 3.825548 -0.70513344 -1.6566327 1.5631793 0.6578448 -1.7060989 -1.373051 -0.027095044 -0.72913986 1.3564074 1.3446791 -1.2403861 2.3591013 -2.0338283 -3.103631 0.10251275 0.99108845 2.6694767 -1.1867496 -4.538308 -3.603146 0.80339915 -1.5843107 -3.1600547 -1.3560312 1.3509732 0.8924718 -2.5461993 -1.0879186 0.70867646 0.6123418 -0.9759501 -0.7813727 0.93932945 -0.2674955 -0.09878551 -1.1817646 -1.1862354 0.05155985 -1.6935939 -3.5380778 0.41767734 0.71492565 0.5858448 -3.7832322 -0.9185576 -0.5712654 3.8744636 -1.6738226 3.9542854 0.6804785 -2.2453854 -0.67184573 3.0608203 0.10531643 1.7528133 0.301837 0.53228736 3.5121508 -1.1087291 2.1287932 1.6155341 0.54354525 1.3383158 -0.21369395 -1.7380427 -2.0803213 -0.17138971 1.0614045 2.3023908 -0.69487333 -0.38812304 -2.2856545 -2.338588 -1.4290023 0.29596585
ke -7.1571608 -2.0627651 -3.4751604 -2.5446942 -1.2372134 1.7315143 -1.9205124 3.9880576 2.0070415 3.227942 -1.3961717 -1.3337271 -2.7362213 1.4919827 -3.6163201 -2.1176581 -0.34241307 -0.09785339 0.2401543 -2.5358913 -1.0230249 -1.0390539 -5.1140075 0.13694163 -0.6631971 1.662028 2.4483662 2.3923593 -2.6893284 0.8546764 -3.380834 2.647988 2.0582745 -0.57612693 0.10214432 -0.49808997 0.547699 -2.7340817 -1.377169 -0.8720053 2.4982219 3.1867325 0.10977648 1.9166313 0.86561304 -0.9564694 -2.0686836 -2.6692598 2.1153126 -2.5462363 5.5372243 2.501377 -0.0253134 -0.33676094 3.534397 0.94415253 0.3274898 0.53147626 -0.7975835 -0.21514891 -2.1949642 2.1414328 0.59484994 -0.7983331 -1.4202765 2.6821783 -0.13383794 1.4482422 -5.2885046 0.45872208 0.23130266 0.79900676 2.7115395 2.4572132 -0.55051905 2.0477486 4.0034256 -1.100118 -0.104237646 0.62716335 -0.6967422 -0.21972795 2.5146167 -3.6578217 -1.259714 5.4259033 2.086291 -1.9173568 0.31708804 -1.1978549 -3.0800908 2.3900545 -2.4750197 -0.6526356 0.40527064 -1.0931803 -0.64613074 2.1179144 -5.070805 -3.368337
sh -3.601918 -5.7437925 -2.3826392 1.8139699 -2.532281 2.7767782 1.630864 1.6860195 1.0902933 0.52788603 -0.5008792 0.5374269 -3.1237478 -1.0067012 -2.455218 -1.5120084 -0.01408948 -4.131086 -1.468735 5.897892 -2.2439482 1.0633614 -1.9664387 -1.966804 5.2743464 -3.2781978 -1.2006608 -1.0165988 0.34424457 -1.3290287 -2.0667958 1.030126 -1.639473 3.7372777 -1.3018818 1.0153413 0.63531077 -1.2900862 -0.8479909 0.7961298 -2.5524123 2.3862462 3.2375247 1.6515208 3.8861206 -0.5057326 -1.6868477 -1.78788 1.8606575 1.5194631 0.28777978 2.649563 1.821252 3.311139 -4.8347187 0.15110756 -1.0057445 -1.7070895 -0.4728678 -3.2683706 0.8116491 -1.928591 2.0656734 1.6066484 -0.74353373 0.4657673 -3.8996332 0.9030209 3.9188738 3.6276035 3.9794316 0.7032799 -1.0086373 -0.75644463 -2.4083178 3.632291 -4.948503 0.5225275 1.2139459 -0.2613302 -0.31938314 0.039482992 2.79592 1.5082667 0.39892304 -0.2045295 3.6792328 2.3664978 -2.0029395 3.8193307 -0.58080524 -0.45426044 0.09509503 -3.2250862 3.9633856 -2.7610013 0.44989893 -1.4247272 0.022750052 0.5902567
as 1.2943814 0.5574504 0.19982956 1.4279009 0.1225635 -0.44437346 -1.8099848 -0.6001086 -0.7326723 0.63324565 -1.6298826 -0.48196724 2.1760716 -0.06937772 1.2266731 -0.112781055 -0.45085976 -0.4000142 1.0914743 1.3968105 1.4153969 -1.2764488 0.09119096 1.3096981 -1.5400116 2.2806716 -0.06714393 0.31689966 0.5444585 0.82432616 -0.44054395 -0.8685759 0.45618126 0.33177534 0.12171738 1.7637177 0.004160912 1.1177447 -0.39974916 3.3764055 1.1293265 0.15051427 0.8238677 -1.7938415 1.0018873 -0.08275885 -0.57823396 0.7747404 0.6278417 1.1158363 1.6411872 -0.27793932 -1.5903889 1.9928747 -0.013934149 -1.1629667 1.4434884 -0.2914293 0.24867857 1.6954067 -0.39014497 0.9999904 1.2207645 0.07637295 0.8297963 -2.2686508 0.003942493 -0.85917044 1.3670965 0.0043961965 -0.919248 -0.042011414 0.62377334 0.9497633 1.8847566 -0.59764975 0.4957485 0.92628866 -2.3141377 0.84106886 -2.316959 -1.0270319 0.59591246 -1.7915906 -0.5066212 -0.36301425 0.07328386 -0.07250546 0.9264188 2.2150762 -0.30922624 0.13298976 -1.3570881 -0.6695999 -0.70543325 1.7247866 0.18838412 -0.018993177 -1.1025428 -1.390269
si 0.514515 -2.5955064 -2.0986288 -1.6721915 3.0233595 1.327493 2.1408858 2.9036586 -0.67846674 -1.7248266 1.0866078 -2.2505825 -0.32399166 -1.2479182 3.8217041 1.1374243 -1.6527752 -0.81129974 0.19555198 -0.29987308 -0.7292099 1.0269045 -1.236607 -4.5426707 -1.7314483 3.306535 -0.26583147 -1.0030352 2.6503701 -1.4854472 0.9473268 -2.4477162 -3.3734634 -2.9134035 0.025908142 1.3836601 3.0330088 0.31147292 0.2825116 0.29128808 1.4727207 6.3157783 0.85533935 -4.3891764 0.91917056 0.619209 2.5599046 1.0235039 -0.6585461 -0.8711347 -2.1241755 -5.6117697 2.6091523 0.120096475 1.172233 -3.2489464 -1.2869169 1.0742942 -0.4277348 2.4428713 1.7486808 -0.7325068 -1.4776224 0.6936414 -0.6721787 -1.2113488 -2.4079504 -0.8390478 0.7796792 -3.6253607 -1.9834038 -0.75699437 0.9046293 -1.0836158 1.9121581 -0.057365466 -1.7032521 1.6475455 0.10615498 0.7597594 1.8322971 -2.575936 -0.4727047 2.9720504 2.0467207 -0.7075188 -1.3885936 -2.8745162 5.6528244 -2.318352 4.541906 1.6395551 1.2600658 -1.898106 1.124191 2.9159443 2.9206636 2.7245126 3.3964324 1.3247072
e 0.737179 0.84307903 1.7208085 -1.2765161 2.5574403 -0.29630676 -3.4104805 2.1629045 0.9103571 2.5669808 0.27616504 0.7436042 -0.5904346 0.07577085 -0.4156642 -1.18806 -1.0577495 -0.4494694 1.1878248 -0.6526016 -0.935149 -0.10972216 2.5534701 -3.869631 1.5916892 2.566312 1.1849067 1.0987384 -4.073738 1.563189 2.5162802 -2.6149573 1.2070702 1.6799678 -0.14449035 2.2595406 -0.13622671 -3.8919866 2.453168 3.3687382 1.1438826 2.6393797 0.69721377 -3.3032951 -3.6381543 -2.6635852 -4.373519 2.1218872 1.1792036 -2.2484245 -0.40264297 0.57485944 -2.98407 -0.7366694 2.9362154 -1.4359068 1.0300153 -2.0919116 1.7773939 0.7385437 -0.6941537 -3.361252 -1.061201 1.4142901 1.7547221 2.7128704 4.444143 -4.5760894 1.5728198 3.416212 -0.23725747 -1.8813629 2.1311605 -3.7679148 1.7896866 1.184361 -2.6635554 -0.373494 0.5289044 -2.5293927 2.076034 -1.789004 -5.0264583 2.754785 2.4183013 0.041496273 -0.17189226 0.39601305 0.25574914 -1.2379131 -1.1597204 -0.78153586 3.7540486 0.5627176 1.0108098 -0.28748655 3.59945 -0.48989964 -1.3218123 2.4478178
d -0.19354898 -3.449434 -1.4120365 2.4448183 -1.3178312 0.23617424 -1.8665425 0.2755977 -2.320395 0.90953004 0.85038096 -3.4994624 1.3391571 2.4996455 0.16817626 -3.418678 2.8725753 -1.118397 0.8690297 0.19741327 3.0845861 -0.7247219 3.4767463 1.6840432 -0.39886642 -2.726223 -1.9855139 0.5025111 -0.621782 -2.711356 1.1952018 1.2800022 0.7270063 0.63656074 3.9913194 -1.5345384 0.68999594 -0.022754224 -1.9761671 0.13514541 1.725729 -1.3372875 -0.70827943 0.9690416 -0.49125263 0.99758816 -0.97438294 -2.689446 -0.06354 -2.3670294 -2.432277 -1.1552231 3.348482 -1.3239281 -0.88695735 -0.7769831 1.2633718 1.1449082 0.047852732 1.8916417 -2.232228 1.084171 -1.9025037 0.120259546 -0.29496583 0.68327385 -1.2923874 -2.0921612 2.365592 1.1160557 -0.8472037 1.969001 1.5167718 -1.5354933 -0.15318336 -0.6573746 1.5488276 -2.251442 0.3874262 -2.0316432 -0.060566388 1.3284537 -0.12078355 0.3000317 2.4175663 -0.65000623 1.8337815 -0.0957021 0.8106774 -1.9816998 0.7406042 -2.6452937 -2.0145683 -0.3058266 2.3285935 -3.7316144 0.444404 0.58682895 1.8585925 2.8183973
f 0.8448482 -3.9679985 0.78763634 -0.3403308 1.1010945 2.2217963 -2.5104148 -3.9806137 -1.490167 2.047479 1.387867 2.3950229 -0.9538707 -0.94988316 -2.6845827 6.691225 -1.3453863 -1.6529586 1.1822815 -3.435665 3.9923246 -2.5026686 -3.3744726 0.9117197 4.722795 -3.0638657 2.1183043 -2.8541317 -1.6366727 -0.2927347 1.6266232 6.6720104 -0.5292753 1.4857719 5.6751413 3.259234 -1.389932 1.4838554 0.573961 1.3257307 5.1069145 -1.636817 0.9085885 -1.3248339 2.071036 -2.476611 6.437612 0.5478419 -4.1531234 -2.271402 3.4865828 -2.4972904 -1.0627233 -1.8183823 4.0496244 -4.903356 4.7036476 -3.8733716 -0.53298056 2.321332 -1.1721796 1.7323631 -0.03335993 -4.6690736 1.1328546 0.20975843 0.0832527 -2.0296044 0.7351688 -1.3773164 5.3332586 0.28450924 -0.12284687 -2.3897152 -2.3044271 -1.2385828 2.1406388 -2.971784 -1.26737 0.3422368 -2.9936583 5.6101265 0.6948855 2.8199272 1.79044 0.05332633 -1.012695 2.6659644 -2.5358257 -2.6358001 3.703497 -0.62095207 0.48164153 3.6980155 0.51851773 -5.362492 1.5896931 2.8493423 -0.99718136 -4.044772
ge 2.8150833 -0.7159767 1.5472229 -1.3298297 0.0394353 3.2215006 0.5817048 0.049938276 -1.3176135 -1.6569797 -0.6444049 -1.0945332 -1.3380704 1.1865388 -0.47373283 -0.24771146 1.3687291 -1.9332635 -0.9551218 0.983263 2.9920328 -1.7740456 1.3382078 0.21784903 -0.74318415 -0.4100325 1.1096069 0.5003829 3.6487422 -1.1136698 0.5534119 4.079844 1.3695093 -0.1310123 -0.2721959 -1.7604553 0.751565 0.66869485 -0.9191638 1.6543384 1.4674366 -0.75235593 0.30069405 2.2450335 -2.064111 -3.6732843 1.2862782 -0.22535837 -1.2141948 -0.6647765 -1.10013 2.3094544 2.7353842 0.4759466 2.0379827 -0.955155 -1.0494046 -1.4065554 1.4667774 -1.6296773 0.0068203625 1.8300573 -3.0179229 -1.5149524 -2.9179819 -0.45575127 0.81209415 -1.0301512 -0.18140203 0.7548706 -0.8467473 2.3602598 -0.591814 -0.3450547 -1.8045168 1.6672647 -0.05013427 -1.2415819 -0.47475788 0.21056353 0.8271691 1.9463586 3.670988 -2.6800876 0.23098905 2.8297439 2.392127 -1.9141791 1.8512834 -0.23919955 -0.7643848 2.2014294 -0.19901942 -0.82507443 0.07581463 -0.87368125 0.5534627 1.9023988 -1.1867492 3.2601693
pe 2.5472403 2.659041 2.3508177 1.4572239 4.4757795 -1.5816991 0.8664625 2.5810297 0.21721594 -0.8984595 5.265775 3.596326 -1.9470063 -2.5702963 2.730349 3.2984722 -4.168372 1.9216492 -4.6975946 -1.5433599 2.6429706 -1.686062 0.39428765 -0.914363 4.3679266 -3.7137325 -1.4093269 0.571993 -2.3009071 -1.0516752 4.193229 1.4056988 -0.56918263 1.7469939 -1.6116375 -2.3693728 3.7497368 -3.1028516 3.225142 -5.972353 -0.6035226 2.1390526 -2.3326406 1.6868072 4.4209957 1.8096172 -1.6710137 -1.4597132 0.8764329 -1.9446605 1.0947723 0.2883368 -1.3956199 0.35753876 2.084776 2.5872405 0.2616316 2.174656 0.6015747 -4.0338206 -4.7539077 2.2890294 -4.166399 2.964691 3.4372032 -2.600355 -0.93042827 3.8727286 2.3696537 -1.9297094 -2.1200488 -0.69047284 -1.6392745 1.244887 -3.1218982 1.967547 5.496989 4.0010667 0.7942168 -0.23524512 -0.951616 -2.485803 0.53709173 1.9472812 -0.26480865 -0.6472628 2.005988 -0.9154292 2.1014073 0.385818 -1.5504872 -3.7027166 -3.735333 -0.83964336 2.3141112 1.7356427 -0.38637465 2.3523035 -4.7302246 3.9883695
hi -0.12816088 -3.4110184 2.1716113 -0.8919184 0.7117553 0.24614514 -1.4836051 -2.2136106 -3.0039077 -2.193196 1.6563046 1.25356 1.1934115 -0.7412214 0.40960407 1.0979602 1.8248086 -1.1744778 -3.2867448 -0.8032412 1.1555234 -0.82830185 -1.8596324 0.5937991 2.7596545 0.053074636 0.79580104 -2.2065024 -5.1175246 -2.2377005 0.9934405 1.3954374 0.33966097 -0.1733228 -0.23220149 3.8411398 -0.93692964 -1.7529525 1.8207504 0.019470124 -1.2645476 -1.5606713 0.96073854 2.5183566 -2.220885 -3.2295384 2.7846122 2.7919261 -0.6670295 -1.7574115 0.45851982 -3.0388126 -2.2529802 -2.9603186 0.34000337 0.8630574 1.2896991 1.1236612 2.7336082 -1.6239284 1.1116377 -0.8622196 3.9927197 1.4532807 0.091089465 3.6753635 -0.27652767 -2.1989253 0.6704264 -3.3880842 4.3449106 2.3077252 -0.38242215 2.4396613 0.392159 0.73996127 -1.0581905 0.73346645 -0.6474533 0.6077933 0.12899622 -1.357123 2.5802743 0.9585209 -1.7645718 -1.8917602 -1.0211495 0.055706944 0.19437955 -2.761458 2.8687837 0.6936826 3.4340706 -2.1483526 3.056158 -1.6775006 0.57024795 1.3871788 0.90915066 -1.9110805
en 3.0091898 1.6880897 -0.16373354 0.63038594 -0.19531783 -1.0151818 -4.91306 -1.2772921 2.7652948 -1.1943558 1.3132615 0.4594424 -1.5321723 -0.7469594 0.842135 0.24907044 -3.1039596 1.2432715 0.25055715 -4.0627093 -2.2717962 -3.389993 2.0796592 -0.5501051 3.9418674 0.6943189 -1.0669004 1.4619248 3.9414692 -1.4613044 0.72884905 -1.79545 -1.1762815 -3.2949858 -6.1061583 3.968948 -1.8814031 -2.3616045 -6.2533073 -3.1862867 -0.5932673 -0.6663486 1.2323151 -2.5456147 -2.3197594 -1.3122941 3.5388312 2.388397 3.0575511 -0.22550574 0.83708346 0.31606433 2.3235638 0.5326624 -1.751497 3.2115219 -2.9181747 0.38478953 0.49530312 -7.75558 -5.1349583 1.2441653 6.609841 2.4779632 2.4873664 -0.5606216 -1.8342584 0.02843151 -1.8678646 -2.6523306 -1.582925 -2.8627172 -1.9097546 -7.2419286 0.14448796 0.39719233 -1.1030406 -1.7322936 0.118613526 -0.9271718 5.350755 -3.2115426 1.6123059 -2.533754 1.9998378 1.992082 -3.2808986 -2.9479406 -2.9367843 -0.58583254 -0.118456386 -5.3049827 1.8064061 1.0708946 2.9800613 -0.0645372 -2.2788045 0.35599518 -5.5952263 -3.7348092
ta 0.5012507 -3.5351655 -1.7523263 0.68447953 1.2778573 0.24928856 1.6546756 -2.9464471 -1.9825069 0.42890763 2.65561 1.0402287 -1.211408 -0.31945243 -0.57260555 1.4325725 -0.5293008 0.66146064 1.7647253 0.07496428 -0.31320837 -1.0513815 2.996384 3.2856781 1.0008798 -0.44808277 1.4866594 1.5948664 -0.42556715 0.81100065 2.2459693 -5.307592 -0.50978833 -0.51094717 0.7218794 0.5854058 -1.1717352 0.7024207 2.4226131 1.83584 -3.7134955 -0.4266339 1.9461002 1.4951679 1.3731128 0.45533016 -1.1019816 0.80147636 0.14108035 1.7330189 0.0029211598 -1.4041256 2.5676904 -2.1243343 0.9068147 0.16809046 -2.4193833 -2.3186066 4.686684 -0.8387332 1.1056545 -1.7372108 -0.348805 1.1320583 -1.7021544 -4.231686 2.7241085 -1.6055309 2.3261275 2.0956523 1.7088542 -2.135404 -0.5898401 1.2056787 0.90944415 0.36143965 2.5646303 0.56515145 -0.06273847 -0.6064915 -1.5753286 -0.34871036 -2.2416956 3.6508625 0.11895496 -0.25194559 -1.344258 0.5796178 1.7131827 0.15327156 3.5928633 -0.49589515 -2.2528374 -1.9703431 -4.05433 4.297272 1.3270919 -0.9445225 3.4089923 1.9544513
ou 1.6888084 3.083616 0.7548399 -4.391066 -1.5603188 -1.9789191 1.1944261 -0.75491697 -2.9827502 -2.788252 5.2517624 6.7067122 1.7842753 -2.4372804 3.1762848 -3.9144096 2.5586367 -2.135986 -0.025553433 -8.107252 -0.6559415 0.13331126 -2.636195 -0.4554325 -0.5176148 2.7423394 3.144809 -1.3330075 -4.345725 0.35602146 -3.4577227 -1.5801435 -4.555961 1.510235 5.341532 0.1559811 2.1573572 1.1218828 0.9231396 -1.6725837 4.5691137 -3.7234263 -3.5041816 0.06461166 -2.760787 -0.20250632 1.1051733 1.2701961 4.334566 -2.0586169 0.30276227 2.2468493 -1.1677871 -2.0505795 -0.09781715 4.2472 -1.4172372 5.3488965 -0.26558897 1.9587743 1.0397437 -2.6579494 0.6265506 -1.7150398 -1.5660672 -3.2177627 -3.5688372 0.47645685 -0.5487066 -0.72140545 -2.6441374 -0.42198187 6.7258587 3.893559 0.20714927 -2.8473656 3.1450117 1.5626239 -0.07053311 -3.330754 5.8400426 1.6894612 -2.1390579 -5.6266103 -1.0094668 -1.907084 -2.2536771 1.1742996 -2.4371042 1.3204339 5.265333 0.90300256 0.60030746 -0.46813792 -0.10618496 -3.0562546 -5.8445406 2.207708 8.114029 -1.2276425
do 2.0481503 -0.6002159 -2.0665908 -6.312859 0.6751817 0.7245621 -3.2724242 0.7067612 -0.98264384 1.5376425 0.73139524 -0.51966345 -1.3834301 2.2010248 4.6736445 -3.0239322 2.9572432 0.26897588 1.7542461 1.060725 5.640008 -0.6234839 -0.73821163 1.6689309 1.9791956 -1.9776084 0.92189825 -0.15475085 -1.6376806 0.85903543 2.7292883 1.6461145 0.35379905 1.766872 -3.8395085 -0.052105445 4.2920747 1.8762128 1.3082589 -2.3899179 -2.6911414 -0.28545678 0.050471604 2.7463822 0.15184742 1.2594895 2.252842 1.4168775 -2.4669363 -1.4018385 3.8368833 0.5684642 1.2386988 -0.530843 0.589039 4.8258715 0.6993292 -0.78400457 0.99162793 -1.456434 1.4853657 1.5824018 0.19381906 0.75072664 -1.1534375 -0.9290221 -5.23527 -2.3424034 0.6908186 4.754786 -1.622625 -3.1150956 -0.35742941 0.55057883 -0.76487046 -0.4854979 0.653193 -2.4021971 1.3297546 -1.3291401 -1.5784123 1.2938977 1.2201495 -0.29091525 -1.9450784 -0.43782416 1.9965128 -5.089023 -0.48989713 0.35205594 1.9224744 -0.22931655 -0.4628098 -1.2479936 -0.6546436 -0.5957317 0.116904765 2.8787565 1.0748916 0.6427218
we 1.6943222 -1.4263793 1.1082234 -2.4969 1.4331965 -1.8325475 1.241791 -1.0561409 -0.71127856 3.8974411 -1.3178695 -0.33421656 0.07613125 1.1624179 -0.626248 0.41388205 -3.4169867 2.4646146 -2.2887986 -0.7151519 -1.5718486 0.102861464 -0.62249494 -0.82548463 0.41388255 -2.3543224 0.15765889 3.8785949 -2.4656668 -1.4165814 2.4413521 0.69179666 1.9623493 -0.18195623 -2.7830858 -2.6578445 3.02959 1.4234214 -0.54335624 1.2903229 0.83202386 -1.0449256 0.8363582 0.32493383 -2.5239522 0.38722178 -0.9012598 0.9853749 2.068894 3.5584006 -1.2055385 -0.9205525 -1.2692966 1.3134884 -1.5991879 -0.44091845 1.3348529 1.6320573 -0.9569106 1.4897596 -3.979151 -2.0138042 -0.43814683 -0.8074354 -2.3900747 -1.3511268 0.5451944 0.44428003 4.073418 1.9691179 -0.506577 -1.7757899 0.83585775 1.8567151 3.2598977 3.0092852 -0.23942624 1.2241105 2.5871108 0.36297798 -3.8770978 3.6137543 0.8900118 -1.6806123 1.5626878 -4.841148 -1.0201029 -0.6964712 -0.14476535 2.1584315 0.5104822 0.3244689 0.836002 -2.179103 0.21722086 1.6093743 -7.2983 3.487993 0.80256176 -0.30119443
gh -0.19472894 -0.7317265 -0.47376117 -6.0666695 -0.14169621 0.8559314 3.325156 1.8230778 1.6291592 1.5740455 -1.2043021 -9.770621 -2.6510644 -1.2264597 -3.040222 3.5033245 -1.1216027 0.26965475 0.77575 3.1947982 1.156789 -0.6572219 3.266625 -3.2430968 -0.39027968 0.8216104 0.8099886 -3.7794821 4.9953055 1.3547697 3.7674894 4.6700277 1.8933085 4.2930784 3.0882905 -6.3089533 0.11597987 0.049291804 -4.8114257 -4.4899583 1.4907453 0.965166 4.642839 3.13911 5.1594443 -5.186087 1.246022 -3.731777 0.990822 2.7375605 2.778738 0.42455417 4.637266 3.0813136 -2.0478694 0.651969 1.8153478 2.2061915 -3.0052304 -1.695709 -3.2653365 -1.1148782 1.6367947 -0.28846648 -4.2883167 2.6994057 -4.220472 -0.47618005 -2.4274678 2.835974 -2.0248961 -0.7020457 0.5782829 -0.19243705 -3.84838 -1.8082415 -4.6685166 -8.355969 0.77406067 -0.053016014 -3.457022 2.7388582 -0.61139965 3.4635088 -1.8941717 1.3187344 2.1420205 3.7756917 -0.88449067 2.981768 2.8713448 2.5894604 -0.93065435 2.7513337 -2.321587 3.9643893 6.268705 -4.444498 -5.723833 0.75471526
yo -3.8396974 -2.0929434 3.5187876 0.8126081 6.309795 -1.1350212 0.5405376 -1.5619663 0.37007335 0.56518936 9.264298 -2.9109697 2.2517216 3.4529483 -0.76155657 -0.29765096 -1.3001091 -5.5628824 2.9978244 1.8203522 -0.94860893 3.8769007 -2.1722386 0.57836246 -3.102923 2.738221 -0.9433555 2.1187222 -0.6734134 2.4599767 -1.0798836 3.0175097 2.5472195 1.1000961 -5.649706 -2.9561107 -4.0778956 2.641366 0.36732394 -0.9561535 4.3906665 0.5351851 -3.5166693 7.9808507 -1.0945772 -0.2953005 -1.3788891 2.6105072 -4.8206944 4.0698595 -1.7614362 -0.8108285 0.93086386 3.385668 -8.14536 4.772554 0.96099454 2.6873112 -2.2205331 -3.1802995 -0.81976753 5.029765 -3.0045407 0.64618915 -0.8971701 1.2309214 0.6277413 -1.3394257 1.8515983 3.2739267 1.2891093 -4.848327 0.0044476064 2.4170413 9.754929 2.1493142 -0.30863473 -2.4663532 -6.8011813 1.5779334 1.405606 1.6491076 1.2664022 0.98819476 1.906169 -0.8385922 2.433424 -2.5305939 -0.4094099 3.449765 1.8490882 -8.565552 2.411329 -2.371215 -2.6727684 -2.6558537 5.9596148 3.2487545 3.3061676 -5.7142525
